{"inputLayerObject":{"contents":{"data":[[0.0],[0.0],[0.0],[0.0],[0.0],[0.0],[0.0],[0.0],[0.0],[0.0],[0.0],[0.0],[0.0],[0.0],[0.0],[0.0],[0.0],[0.0],[0.0],[0.0],[0.0],[0.0],[0.0],[0.0],[0.0],[0.0],[0.0],[0.0],[0.0],[0.0],[0.0],[0.0],[0.0],[0.0],[0.0],[0.0],[0.0],[0.0],[0.0],[0.0],[0.0],[0.0],[0.0],[0.0],[0.0],[0.0],[0.0],[0.0],[0.0],[0.0],[0.0],[0.0],[0.0],[0.0],[0.0],[0.0],[0.0],[0.0],[0.0],[0.0],[0.0],[0.0],[0.0],[0.0],[0.0],[0.0],[0.0],[0.0],[0.0],[0.0],[0.0],[0.0],[0.0],[0.0],[0.0],[0.0],[0.0],[0.0],[0.0],[0.0],[0.0],[0.0],[0.0],[0.0],[0.0],[0.0],[0.0],[0.0],[0.0],[0.0],[0.0],[0.0],[0.0],[0.0],[0.0],[0.0],[0.0],[0.0],[0.0],[0.0],[0.0],[0.0],[0.0],[0.0],[0.0],[0.0],[0.0],[0.0],[0.0],[0.0],[0.0],[0.0],[0.0],[0.0],[0.0],[0.0],[0.0],[0.0],[0.0],[0.0],[0.0],[0.0],[0.0],[0.0],[0.0],[0.0],[0.0],[0.0],[0.0],[0.0],[0.0],[0.0],[0.0],[0.0],[0.0],[0.0],[0.0],[0.0],[0.0],[0.0],[0.0],[0.0],[0.0],[0.0],[0.0],[0.0],[0.0],[0.0],[0.0],[0.0],[0.0],[0.0],[0.0],[0.0],[0.0],[0.0],[0.0],[0.0],[0.0],[0.0],[0.0],[0.0],[0.0],[0.0],[0.0],[0.0],[0.0],[0.0],[0.0],[0.0],[0.0],[0.0],[0.0],[0.0],[0.01953125],[0.67578125],[0.98828125],[0.99609375],[0.98828125],[0.921875],[0.421875],[0.0],[0.0],[0.0],[0.0],[0.0],[0.0],[0.0],[0.0],[0.0],[0.0],[0.0],[0.0],[0.0],[0.0],[0.0],[0.0],[0.0],[0.0],[0.0],[0.0],[0.37890625],[0.984375],[0.984375],[0.94140625],[0.890625],[0.94921875],[0.90234375],[0.56640625],[0.20703125],[0.01953125],[0.0],[0.0],[0.0],[0.0],[0.0],[0.0],[0.0],[0.0],[0.0],[0.0],[0.0],[0.0],[0.0],[0.0],[0.0],[0.0],[0.0],[0.37890625],[0.984375],[0.69140625],[0.1796875],[0.0],[0.30078125],[0.84375],[0.9453125],[0.9453125],[0.16015625],[0.0],[0.0],[0.0],[0.0],[0.0],[0.0],[0.0],[0.0],[0.0],[0.0],[0.0],[0.0],[0.0],[0.0],[0.0],[0.0],[0.06640625],[0.71875],[0.984375],[0.51171875],[0.0],[0.0],[0.0],[0.0],[0.234375],[0.234375],[0.0],[0.0],[0.0],[0.0],[0.0],[0.0],[0.0],[0.0],[0.0],[0.0],[0.0],[0.0],[0.0],[0.0],[0.0],[0.0],[0.0],[0.33203125],[0.984375],[0.984375],[0.40234375],[0.0],[0.0],[0.0],[0.0],[0.0],[0.0],[0.0],[0.0],[0.0],[0.0],[0.0],[0.0],[0.0],[0.0],[0.0],[0.0],[0.0],[0.0],[0.0],[0.0],[0.0],[0.0],[0.35546875],[0.83203125],[0.984375],[0.86328125],[0.03125],[0.0],[0.0],[0.0],[0.0],[0.0],[0.0],[0.0],[0.0],[0.0],[0.0],[0.0],[0.0],[0.0],[0.0],[0.0],[0.0],[0.0],[0.0],[0.0],[0.0],[0.0],[0.3515625],[0.94140625],[0.984375],[0.984375],[0.90625],[0.1953125],[0.0],[0.0],[0.0],[0.0],[0.0],[0.0],[0.0],[0.0],[0.0],[0.0],[0.0],[0.0],[0.0],[0.0],[0.0],[0.0],[0.0],[0.0],[0.0],[0.0],[0.0],[0.52734375],[0.984375],[0.984375],[0.984375],[0.984375],[0.91796875],[0.5859375],[0.0],[0.0],[0.0],[0.0],[0.0],[0.0],[0.0],[0.0],[0.0],[0.0],[0.0],[0.0],[0.0],[0.0],[0.0],[0.0],[0.0],[0.0],[0.0],[0.0],[0.0234375],[0.31640625],[0.25],[0.55859375],[0.9453125],[0.984375],[0.984375],[0.8515625],[0.1640625],[0.0],[0.0],[0.0],[0.0],[0.0],[0.0],[0.0],[0.0],[0.0],[0.0],[0.0],[0.0],[0.0],[0.0],[0.0],[0.0],[0.0],[0.0],[0.0],[0.0],[0.0],[0.0],[0.0390625],[0.49609375],[0.98828125],[0.984375],[0.59765625],[0.0],[0.0],[0.0],[0.0],[0.0],[0.0],[0.0],[0.0],[0.0],[0.0],[0.0],[0.0],[0.0],[0.0],[0.0],[0.0],[0.0],[0.0],[0.0],[0.0],[0.0],[0.0],[0.0],[0.0],[0.2734375],[0.98828125],[0.84765625],[0.0],[0.0],[0.0],[0.0],[0.0],[0.0],[0.0],[0.0],[0.0],[0.0],[0.0],[0.0],[0.0],[0.0],[0.0],[0.0],[0.0],[0.0],[0.0],[0.0],[0.0],[0.0],[0.0],[0.0],[0.05078125],[0.984375],[0.91015625],[0.15625],[0.0],[0.0],[0.0],[0.0],[0.0],[0.0],[0.0],[0.0],[0.0],[0.0],[0.0],[0.0],[0.0],[0.0],[0.0],[0.0],[0.0],[0.0],[0.0],[0.0],[0.0],[0.0],[0.0],[0.34375],[0.984375],[0.84375],[0.0],[0.0],[0.0],[0.0],[0.0],[0.0],[0.0],[0.0],[0.0],[0.0],[0.0],[0.0],[0.0],[0.0],[0.0],[0.0],[0.0],[0.0],[0.0],[0.0],[0.0],[0.0],[0.0],[0.09375],[0.83203125],[0.984375],[0.52734375],[0.0],[0.0],[0.0],[0.0],[0.0],[0.0],[0.0],[0.0],[0.0],[0.0],[0.0],[0.0],[0.0],[0.0],[0.0],[0.0],[0.0],[0.0],[0.0],[0.0],[0.0],[0.0],[0.0],[0.58203125],[0.98828125],[0.9609375],[0.28515625],[0.0],[0.0],[0.0],[0.0],[0.0],[0.0],[0.0],[0.0],[0.0],[0.0],[0.0],[0.0],[0.0],[0.0],[0.0],[0.0],[0.0],[0.0],[0.0],[0.0],[0.0],[0.0],[0.4609375],[0.9765625],[0.9765625],[0.6328125],[0.0],[0.0],[0.0],[0.0],[0.0],[0.0],[0.0],[0.0],[0.0],[0.0],[0.0],[0.0],[0.0],[0.0],[0.0],[0.0],[0.0],[0.0],[0.0],[0.0],[0.0],[0.0],[0.30859375],[0.96875],[0.984375],[0.94140625],[0.0],[0.0],[0.0],[0.0],[0.0],[0.0],[0.0],[0.0],[0.0],[0.0],[0.0],[0.0],[0.0],[0.0],[0.0],[0.0],[0.0],[0.0],[0.0],[0.0],[0.0],[0.109375],[0.53515625],[0.8984375],[0.984375],[0.8046875],[0.1328125],[0.0],[0.0],[0.0],[0.0],[0.0],[0.0],[0.0],[0.0],[0.0],[0.0],[0.0],[0.0],[0.0],[0.0],[0.0],[0.0],[0.0],[0.0],[0.0],[0.0],[0.30859375],[0.5859375],[0.984375],[0.984375],[0.3984375],[0.046875],[0.0],[0.0],[0.0],[0.0],[0.0],[0.0],[0.0],[0.0],[0.0],[0.0],[0.0],[0.0],[0.0],[0.0],[0.0],[0.0],[0.0],[0.0],[0.0],[0.0],[0.18359375],[0.97265625],[0.7578125],[0.6015625],[0.109375],[0.00390625],[0.0],[0.0],[0.0],[0.0],[0.0],[0.0],[0.0],[0.0],[0.0],[0.0],[0.0],[0.0],[0.0],[0.0],[0.0],[0.0],[0.0],[0.0],[0.0],[0.0],[0.0],[0.0],[0.0],[0.0],[0.0],[0.0],[0.0],[0.0],[0.0],[0.0],[0.0],[0.0],[0.0],[0.0],[0.0],[0.0],[0.0],[0.0],[0.0],[0.0],[0.0],[0.0],[0.0],[0.0],[0.0],[0.0],[0.0],[0.0],[0.0],[0.0],[0.0],[0.0],[0.0],[0.0],[0.0],[0.0],[0.0],[0.0],[0.0],[0.0],[0.0],[0.0],[0.0],[0.0],[0.0],[0.0],[0.0],[0.0],[0.0],[0.0],[0.0],[0.0],[0.0],[0.0],[0.0],[0.0],[0.0],[0.0],[0.0],[0.0],[0.0],[0.0],[0.0],[0.0],[0.0],[0.0],[0.0],[0.0],[0.0],[0.0],[0.0],[0.0],[0.0],[0.0],[0.0]],"rows":784,"cols":1},"LAYER_HEIGHT":784,"LAYER_WIDTH":1},"hiddenLayerObjects":[{"weights":{"data":[[-0.94891039093439955,-0.83124855525384123,0.73915861348582368,-0.24398972151986775,-0.9013682500931286,-0.6201677190233803,-0.12043003883232828,0.736733738210394,-0.88358297007325248,-0.45318222672361053,-0.381896471316878,-0.60748598054399994,0.34087129574987779,0.4317133230431705,0.36106420764668595,0.699264278076989,0.54290918612056838,-0.088970040478263956,0.76237575326225526,0.73098363435407343,-0.32816555692263205,0.083501935509732839,-0.9524810621293639,0.5269860632377612,0.20707318522365448,0.59243642333542756,-0.44743702721197021,-0.61674884968285859,0.91247667461283344,0.60051002707356127,0.83146764050771838,0.25754013995525438,-0.93369925857228186,0.94175746196178611,0.86913351237779446,0.15194108133630416,0.28203048093968014,-0.3075850435553793,-0.64026218524506473,-0.25234949633472442,-0.085934132210803912,-0.98746141102328422,0.29784316646966319,-0.26726494495257191,0.65874274887389128,-0.5289092462152698,-0.597339096840569,0.63074219759713757,0.72437204238275665,-0.8593571613667601,-0.71292345864196371,0.727451427712781,-0.74591027281522293,0.30248013851348321,-0.93725999441801566,-0.032412326444132389,-0.87876749312447733,-0.78782744975096575,0.54893709325667506,-0.49380467342845474,0.82726930945342314,-0.50368276199044448,0.82259685969659779,-0.49579917128534373,-0.19229607900098875,0.47385510467770292,-0.61761444328719473,0.46883679415037616,0.61687261568026441,-0.70171156268770873,-0.52483519253445932,-0.1524628656769621,-0.45414009384704984,0.0050644624028164751,-0.18487663813192093,-0.34018345498007779,0.785373853244299,0.31445169782200827,0.86808781080100339,-0.26405965665978265,0.18977578505397585,-0.0781792146517798,-0.34112089189752981,0.77183383598598887,0.31343349132568743,-0.89598340752245686,0.0034669243075093658,-0.23608947049760934,0.87913090649525394,-0.13867811600964547,0.040712567327782459,0.11395792408799978,0.1493324905652548,0.80813957899015809,0.025284407353699766,-0.2565888799332221,-0.32598711576061157,0.18592206615434748,-0.78600106412104342,-0.67162769882854323,-0.83059668870958814,0.11283090074704764,-0.82349274931738037,0.54194997743543183,0.70032108822659578,0.43918709210748147,0.17648127950658196,0.23629342948749549,-0.51718933857846516,0.40295959329139225,0.18224556507484582,-0.19349743238291009,-0.65715150997128069,-0.22442642086705486,0.26701195037663794,-0.218494012583075,0.55979778886819709,-1.5474866980995514,-0.78173937167620677,-1.5626277066716623,-1.2433969593462637,0.51962175037613811,0.80539951760094164,0.021384026713387072,0.57324213513794375,0.59973831155334978,0.925343910615589,0.18311494699066591,-0.5035097081679839,-0.395744525056752,-0.54359268308215547,0.0093387649843833485,0.22831578363108082,0.48801420437249426,-0.40887123114754209,-0.81377102146566427,-0.1463416270661827,0.14362579843214668,-0.95146057006948292,0.89829217460587663,-0.20683795965074792,0.65839982682836307,-0.79541369365416037,-0.71968702512433091,0.39722680766779267,-1.3859959258900947,-0.39280204596964868,-0.35604341997620947,-0.63333250670275254,-1.6361824454463756,-1.0259814304352526,-1.9842182054855353,-0.06943547863187309,0.29439932045207368,1.2003170208812144,-0.55823615705054808,0.45468812371948492,-0.15279031987888991,-1.3475591475190003,-0.95296650065107913,0.62547428153799722,-0.52424328310563939,0.13580728095760919,-0.92186349328842043,-0.076887809649088382,-0.820767000598771,0.50228020852545807,-0.28797459825209926,-0.89069562086789611,0.19169718578955577,-0.5852686678495127,-0.14777135153377385,-1.1798847906419414,0.15992211454908351,0.91549868411383573,-0.70257021699568767,0.19455910460098119,-0.054862178066711884,0.17179269293055788,-0.61496268640570728,-1.3611668804039869,-0.18917701542657656,-1.0527003003604405,-0.84766299152154323,0.71802625875846549,-1.0394217940429518,-0.20071402859279791,0.80324577606074055,0.59563780605877958,-0.99138850387134647,-0.30117623793247361,0.41285293556734654,-0.19444879865137241,0.62387502743559109,-0.89791316221558715,-0.41482071968819573,0.25816784668274406,-0.15137324863403129,0.22545953405944397,0.67766364542100077,-0.017544366218529069,1.687880008985261,-0.1481237393368274,0.94107076484734209,1.4557688468641419,1.5847824975118974,-1.2949766839047827,-1.9048081762336058,0.043538596670059077,0.539309255887636,0.71701278826966308,-0.52734946839605967,-0.86529184268032211,0.15234848894394507,0.71169103632274433,-0.79796455789561538,-0.68395973429599477,0.043912896855136184,-0.7759802336474968,-0.41377794181645983,-0.3281291231383382,0.45391621907062396,0.4684718250771614,0.50172602809466771,0.52209827875294967,0.32556742224077528,1.8310583089752626,-0.028633224334212212,0.83519865606187116,0.4462870538410762,1.512304631857448,0.73588426818452868,0.7800323921179747,0.22677987533631236,-1.1863352612828038,-0.30713077334463684,1.0877481252498025,0.27331700008497306,-0.79856576234711729,0.79488668345183311,-0.82526812215357737,0.033582644088981428,-0.86312124806897561,-0.72249251054699637,-0.29257286682883182,-0.75619292333348309,-0.056445358550025762,0.25591307627855769,0.77413155084812069,0.95122437427053441,0.57646544417040946,2.2233105976529561,2.2224435092420753,0.957109998665203,0.44487773342395237,0.29737410378611917,0.36094607047160027,1.1867437298643415,0.059042884103493613,0.17493477148128239,0.802949147628034,0.75636019224904893,0.54780264943382528,0.40760485182702394,0.97099412707011556,-0.682691653473742,0.220352821107303,0.0565008264130572,0.084972871246155851,0.076422971145681209,0.082126149859529179,0.5611461935051647,-0.093239834556843648,-0.72692817329224535,-0.74170706545362908,0.52506191028061144,0.61785652760273291,0.90386365884032727,2.2190625388680867,0.69908093916935587,1.3698539910917915,0.52211427675237065,0.391425629237137,0.51608209019029061,-0.26893445756379458,-0.920253440903275,-0.38941585266749962,-0.18187967636408745,-0.043726497258994496,0.31870993258407682,1.5630116210535248,1.0861802297257039,1.1438015479268988,-0.24139761783167169,0.83993872594113939,-0.61945000991749521,-0.91703511585631092,0.67652632882274211,-0.11512293193500758,-0.5159614800313661,0.30874985201520122,0.87984249392668756,-0.59202897113856723,0.13747022471842615,0.87302805200176969,1.3126475680847669,1.8315172393431778,2.3099481059720115,0.059121052423022548,0.69916191454961529,0.87966597122597889,0.48513040892824083,-1.0334324401557373,0.33675247890572685,2.0265069061690437,1.7721565807414397,1.1239260893766681,1.5233218806248712,1.1032242050069874,0.43626325455997828,0.176189079924279,-0.54974816403730731,-0.54479701135273984,0.96702979426627278,0.22008635528174425,0.70814526422243274,0.78559446841098823,-0.809572467404709,-0.55551148679919193,1.2013951720199789,0.80256499872735221,1.7468924437791165,2.5708593283489254,1.8634482157872623,0.56208023147531161,0.45660732871749915,-0.84013827069785008,0.54827713779782439,-0.8637174096924729,-0.068600456403464127,2.0191887281994183,2.2464619863640123,2.233381916078188,2.2355948902065395,1.6161274933766787,1.7838612916176893,0.79006102990116944,0.27841793712167984,0.10776943130497192,-0.58508210168213881,0.0075476152327142929,-0.60707440915301669,-0.71608697258411391,0.866792850972017,0.50085401028623688,0.1093044613098451,0.66305299667664064,-0.53984596194071177,1.2447190839322251,1.3440755258327617,0.45259826266754438,-0.93855755422055775,-0.019317902024008123,-0.51962726224512856,0.80746616290771389,1.7387071030975989,2.2874195228840293,1.858667876633042,2.055686682924045,-0.241938949282873,1.5117567518484874,1.7347270867958888,0.73289831972382358,0.508805682049262,0.73431677488672154,0.79483172203060914,-0.58611522540381056,0.025189003791267584,-0.50947241411041722,0.29441260126083052,-0.2764677691237884,-0.099450762394857978,0.21411783345709831,1.1275356140093762,0.14489706422575374,0.34430613104687485,0.79339120471473956,-1.0878370487080056,-0.49682103904927494,0.36431791797677265,-0.84248673442262378,1.5565854129419332,1.5854555985738388,1.9739629335075042,2.3139163068523407,1.3519696236503291,-0.044592495107456886,1.1451547788905316,1.3192396862725258,1.0700502117188757,1.1636148129253912,1.0166966253274765,0.30202038155968375,0.025006802637853268,0.058556887228301574,0.2085468671110649,0.35894790079703143,0.41589359738225196,-0.38750070486958837,0.959632596975268,-0.15908964586414642,-0.6146593037432182,0.55288825265426256,-1.0660545829719703,-1.7826625573259616,-0.592658147095912,-0.92383486455555075,-1.0978820801695197,-0.050419819958792023,-0.79222479981755556,-0.37901239375228368,1.3189259721542728,1.5089383811026216,0.47928029343409323,2.2337488849523917,0.94307308852981675,1.0345769540004906,0.58483715791839475,0.50589965306765849,-0.61057116250242149,0.40033470668346527,-0.0056121619402646613,0.30790968620470727,-0.14870880205623921,0.32387786463267437,0.095443424517745457,0.961322082436749,-0.79800697099579176,-0.0871420453393418,0.7836702384372819,0.90577153330496285,-1.2209939904980822,0.2911572290950824,1.0291783038966564,-0.1575762189252245,-0.45178198233248695,-1.6824886923400757,0.79353648727787252,0.10247448416102843,0.38255291043115341,1.6160021207031861,1.6128001006203874,1.7076650684642252,0.36664719224085723,0.5714194548496756,-0.63710270285559045,1.0129369036784819,-0.10792656082473348,0.23058228133674144,0.59703028835217942,0.36325927020253751,0.97934807680793345,-0.75738063654551913,-0.59524170716286229,-0.50091522178513348,0.75896008790618052,0.88397439628762686,1.2777263363067348,1.381647119328594,1.7581497202016059,0.87940989125356694,1.2971859387137239,-0.65790975150730535,-0.33134812715198514,-0.331895256901563,-0.983808164810515,-0.87066955072708874,1.4623624918780094,1.2365623596524809,1.8590395210430739,0.94490459482078559,-0.19107232064311824,-0.92402922995678916,0.31486795829844588,-0.68186677709148946,-0.45053053257337189,0.19818400570108516,-0.81217709814162886,0.57542449983710575,0.0754381423139823,0.10414193961631489,0.28165921774387331,0.52611350755158537,1.3378808466185546,1.7906860921909478,2.8596420016626509,2.6104973507831724,1.7941861193034772,1.687554891680576,1.6142680753334775,-0.4380385246402359,-0.93974092501330342,-1.6151514530651527,-1.4629853068835366,0.90114729917937453,0.75371496022477091,0.146493680562017,1.7081514845619672,-0.23610221046879759,-0.18557942492332649,0.73420378898164274,0.97733907115514751,-0.7556124799424071,0.23492574749278478,-0.76850935972269008,0.14724324133324848,0.8428884191935605,-0.26955407462899778,-0.4685065719861643,1.3302314874360646,0.33963651369835607,2.3759847528487783,2.2110023907373351,2.2242408730027226,2.5122445016467245,1.6827454864114824,0.75825773112947092,0.44374467608014351,-0.79389632537464017,-1.383831606444667,-1.5067780001277011,0.18693636955708196,1.0707194202008683,0.89392888226422551,1.166845329559471,-0.518930247935861,0.39882425392787552,0.75338115259468841,0.70463845987460938,0.91902278893466716,-0.86951718007657552,0.2519913848169576,0.903934495802746,-0.45838610166591692,0.34729321974530381,0.45613419352863693,-0.33672418217142963,0.80437829142769968,0.51065672975429954,1.1941717802518648,2.0997153350551478,0.99464527901850086,1.3248677212413962,1.6299672009106172,0.4238874917263854,-0.43353706333770009,-0.34191177406129969,-0.68407299949833755,-0.38831729248000091,1.2298777225232809,1.9384974955516563,0.51884589070878617,-0.50587375947540758,-0.065749351000060061,-0.58320293729344341,-0.30753178403480053,0.615633439298034,0.4221639798102742,0.89381881508066308,-1.0131118428990238,0.55341670317102132,-0.59412270496188457,0.1137933827592066,-1.0005358896589929,0.41501825796499797,-1.0283207073305594,-0.17128344822868283,0.65169499341296133,-0.20639294051022913,-0.21058804889810351,-0.60908280140120752,-0.76284487129802825,-1.54731639117646,-1.0458635809647943,-0.051466391019872819,0.92532574102604792,0.10920049449004228,0.14092280482692365,0.29395591367106161,0.53864173206449861,-0.737510090296972,-0.38689812167838405,0.55328927253408189,0.2651803020321471,0.96969069911392813,-0.1369649258549823,-0.24771650989880928,-0.30959015765842279,-0.73024082653283773,-0.41802563629036982,0.28369258022583016,-0.10620058441898873,-0.39059571440343033,-1.5499354323404848,-0.31919096958598664,-0.18511943011611665,1.0578278415390157,0.73104628291419027,-0.530488482033524,-0.13833073046865352,0.1188236312126901,0.48247043902158437,-0.033165791755912333,0.85377749721200824,1.1920345128976955,0.25028573536914689,0.18701620185391546,-0.78401812142591,0.91289720065526458,-0.14946009333904795,-0.42702719708675713,-0.08700820761127781,-0.87536995759018232,-0.741595287643799,0.57354697375645758,-0.10081735096986473,-0.52206841947219218,0.75595024578864645,-1.5542488968677328,-1.1891602707061479,-2.6356256484182081,-2.8668403910569547,-2.1902716972831313,0.39068526206442927,0.26639117055581429,0.394868533202845,0.4533002526578559,1.0073714300184322,1.1813152052084186,2.2681583509839536,1.5036336832835446,0.70576590778573145,-0.1445658273844273,0.078779270759890774,-0.029261540806313185,0.41201966401593881,-0.64812706942637333,-0.974919458613775,0.35934704884856328,-0.11070941067799434,0.68581844534016878,-0.53848274650076644,-0.20645866043677044,0.15789307757980545,-1.1333782515914634,-0.615667067910831,-0.0020372489258564633,0.14878756314340139,-0.15754520832420679,-1.2364161197076751,-0.85894501116618593,-0.10227844869057151,-0.42723972801392995,0.909188879602549,0.017541102821597834,0.093350678691228248,0.20738349286594993,0.1848228120020084,-0.28685894547459934,-0.24408929494910184,1.1240721434067584,-0.87206955701843913,0.66176225971138136,-0.83824485465952647,-0.17793508436218739,0.32313413513970279,-0.78483568680697857,0.27232639487455662,0.30508243939846169,-0.791598162849495,-0.46269859335278635,-0.48110353391916294,-0.50077747587874188,0.22331637755467226,0.12916118130336077,0.75397978583877612,0.27262463110466034,0.08904449991757156,0.71505081574118234,-0.18860603803991127,-0.21740843580940272,1.1656018675856521,0.72540576958405478,0.8589258045694409,-0.39670729533313004,-0.73081004395273108,-0.427473796223848,0.51891002096621686,-0.27645781155435956,-0.44886890451175648,-0.081704543036287089,0.76015246731931929,0.59848184585500586,-0.25915381184739705,-0.045617023038499571,0.55492676679669206,-0.15899247525580121,-0.27262666909680228,-0.47349385950612688,-0.24271531028540672,-0.51087121842227379,0.83136567883110957,-1.0528991362557423,0.10915116568932205,-0.75172249369952238,-0.40026223437661607,0.23899537476062002,0.519250798976109,-0.8749148632140975,-0.62237728690921779,0.035389684908286333,0.20833304445399387,-0.17201560470582883,-0.97571083527958569,-0.54381637624846468,-0.74720970744646942,-0.46104788848187395,0.78702119169152918,0.45092523631217207,-0.489375843428716,-0.25284622016029723,-0.29713648804330106,-0.44963609867246634,-0.24564911855647764,0.29648070842795105,-0.18869374934057415,-0.0054097105774142396,0.85550210338807764,-0.646724846980872,0.57659836745662529,-0.028483903514446629,-0.3353927663226578,-0.25676516781410441,-0.012147699022734382,0.91551814038097779,-0.69011188935959333,0.52384863399148385,-0.646322357303613,0.71981203729278032,-0.68722360007801253,0.22013504953129925,0.20984934419852186,0.45829925754028333,-0.59595412555893612,0.5373110182291414,0.71417353847724074,-0.06784389776542965,0.57419957293858737,-0.71533048325932147,-0.29840714824311765,0.015974655289191064,0.053887244804709855,0.2744816407908135,-0.99890094250389416,-0.99539157561743241,0.78386586428799943,0.3020721773160957,0.40391797172088073,0.94215197951633112,0.34341668865802544,0.40311650717776115,0.23565089015087626,0.012855858082350347,-0.52259682376058625,0.34640052325390314,-0.65116297623662422,-0.53924852308782212,0.83998195633291362,-0.89123586746455907,-0.85371143922848225,-0.27105850878686577,-0.81472553117886437,-0.93279084560125636,0.1381488363901846],[0.29048910703998487,0.53730443564118091,0.24456425441641549,-0.85368197311353033,0.21703986321438107,0.5823071699507103,0.87915014842485539,0.42039071648399839,0.57083258664739911,0.65168230126224569,-0.43937628783256577,0.91762885168084352,0.39012561751248043,-0.25786369338965542,-0.016755591484747121,-0.86834770174366516,0.0078159333243108531,-0.88006933772939688,-0.5884743368199441,-0.62360465136524512,-0.090340107255773683,0.984484159380423,-0.80300651388382849,-0.019103918699130418,0.057645351187160854,0.18847399446576563,0.25342206156506308,0.092174145901656734,0.46543544040314644,-0.86161904403083911,0.97265136054374812,-0.16929981353123089,-0.013321909591937216,-0.86366579345440952,-0.28938779761348205,-0.29450194517313433,-0.40745045796226181,0.15595004032929991,-0.81226796787140954,-0.63894632772810944,0.46412977565989755,0.98344445231971256,0.66666471422800344,0.36375138951012687,0.92793323392736859,0.43016029346362827,-0.049009407605223515,0.71467218275073485,-0.14331125012971266,1.0901097461744287,0.29639664443248437,-0.39098917105746878,0.77374880564107973,0.69081380576398876,-0.77151105635404171,0.30600494765956188,0.3403109495250094,-0.73633182688440346,0.087413345829660566,-0.971374537668531,-0.67251833992515353,-0.20604578523765171,1.2387078315780069,0.61373721479964449,0.69050166586416373,0.70177546794462187,-0.26853228718536626,0.20517042069193775,-0.94500829016115329,-0.42928182791828129,0.77515679019893691,0.9627721384805692,0.943596362482562,-0.94911414223099855,-0.11814755444788926,-0.089806438740588065,-0.576117429307242,-0.038266811304309409,0.064117420551440527,0.6288738438884568,-0.77023743641108156,0.53480635934267484,-0.76456393383655885,0.48832358396068387,-0.0001265604820458964,0.36313465531549133,0.05695491497697075,0.28727936775865653,0.98885846962532686,0.95085882940740962,0.6709627724314452,-0.55289766352544156,-0.66761867843134115,-0.40437471941932346,-0.46513328209809746,-0.30450338838449753,-1.2642313612877629,-0.7069364915832016,0.95402331050311884,-0.36632501135456896,-0.076574697318526674,0.74928106270123263,0.85185531914470791,-0.53048857439889763,-0.56138321708954153,0.35616731066776841,-0.32383513766951805,0.722067916606775,-0.22131500263759629,0.30155484065572846,-0.013660049188232423,-0.49556965391333613,0.1995603979780603,0.48002435348256545,0.82680923939376227,0.11172580731575622,0.3353871195933763,0.16264988638507943,-0.20302626302464202,-0.44783297014628576,0.15224316141321156,1.076726636618158,0.9463426280723376,0.1552145160878321,0.76858157405172056,0.48759504913324142,0.948769200110769,0.71845209538675248,-1.2273060954233377,-0.67602007455182034,-0.36780817683025419,-1.5024332573521682,-0.34332558567686006,-0.28285093691381885,0.1634069872678913,-0.4751560788020287,0.8477164813539555,0.89467801023001381,0.092488458989828284,0.7615284471112379,-0.13913266136988522,0.523360937374268,-0.0371969960005006,0.28609117231807796,0.27451598562782509,0.3632974508549523,-0.35681723135587662,-1.6891699358195644,-1.946686003627315,-0.52285668902004223,-0.92942256111736588,0.66240497545191368,1.0916249971460241,0.11613011348763862,0.061227404771352363,-0.81947192156064685,-0.83898394137890342,-0.639687401435437,-0.94999432407072348,-0.42082986602854877,0.299446892281079,0.00885579699326557,0.70134679959218338,-0.45617769665974423,-0.59764634351256352,-0.0036768865254853981,0.45490985017728708,-0.55417620193368167,-0.28285870885762765,0.68289121483669124,1.2140885118122746,0.87555174099252386,0.94608580164680367,-0.56225927545995535,0.057211701669889467,-0.36560347831028789,-0.43588741495379996,-1.2841839758355729,-1.9089193490422241,-0.81664176242275632,-1.5356115991918369,-1.7813527629842272,-0.75514020234703227,-1.5751365880625847,-2.3055307757059058,-0.87909417831546433,-1.6576516948946869,0.203978107065932,0.17613743477649202,-0.7316816643493631,-0.83432120293204581,-0.21304658405243254,-0.049250899913109825,-1.0639114663216887,-1.0810511812698691,0.879803573129217,1.4628651488909437,2.1127419785857171,-0.48206582145368904,0.19730128279949444,-0.5188825304538085,-0.68289889564623985,-0.93300161720952357,0.48057974333495262,-0.536559616405557,0.59798505285327741,-1.481974956300147,-1.1866373785309816,-1.1053549520487525,-1.9808189889904537,-0.27117806421616569,-0.14851959782379523,-0.80475541218696567,-1.4646907189689571,-0.68491213927181183,-0.8086568087940762,0.48598658176417775,-0.082503288266049732,-0.54489065341320742,-0.031741370724808211,-0.43774403083422403,0.2987301106285094,0.17739751308818061,-0.10012047548731839,0.50110639960050574,-1.872548685680784,0.063768508496928736,-0.77993158205220048,-1.8279330074708882,0.024609015362354342,0.58441580028395668,0.45511894261062069,-0.25260984417158489,-1.4289245906045962,-1.1209491217898744,-0.692367617396378,-0.47631059424012123,-1.2543715319035198,-1.1380520098909168,-0.87763301450030839,-0.62203338268779662,-0.27582469266463577,-1.2397932984928484,0.1875818079279504,-0.49811640336020252,-0.42095728616415107,0.94899298645311614,-0.18046790857141756,-0.059315600078808553,1.139566861072701,-0.70060368226829561,-1.4018464783944775,-0.78563438958587817,-1.4829752162114644,-1.8629244386704587,-0.95312306012437842,-0.41539790868821841,-1.2941199326304296,0.99441007031638873,-1.5580389057179034,-1.0481163310116226,-1.5699003089875199,-1.8110800271988992,-0.14557636229313961,-1.4861921502845268,-0.70591713857209271,-0.30588826090937471,-1.8087584836598734,-0.92958047011860578,0.11210577509466643,0.42457112922542484,0.1226755464378556,-0.55889169313670617,0.76623381519013034,0.86540426092192635,0.21424400556011441,0.088822381574682543,0.20740326523559513,-0.99599049167198994,-1.4731961357109071,-3.257264906067356,-2.7854173123288324,-3.6042966477011396,-2.260910944066397,-0.81029000194540834,-0.7618417994407819,-0.967135110525372,-1.01528752651754,-0.2979845523057848,-0.14908889193737807,-0.61901053202685641,-1.01763287462513,-1.2111040633786805,-1.5041270880083035,-0.94764502309899634,-1.232043970615673,-0.4552917013240193,-0.84991914492563436,-0.28364760841166364,0.92110918921575979,0.41489779553008449,0.76605803684072338,-1.0101546644895008,0.1927821923413473,-2.0552667031520131,-1.3407915429876927,-2.3702300937509317,-2.3255383130258425,-3.128033747268669,-1.6536840513995672,-3.1869749670947614,-2.9227622441469072,-2.3762239124809348,-1.4382712890404266,-0.818179908599913,-1.6954912734469676,-0.91579745011311742,0.57429939980557931,-0.55991306090842408,0.52717151724152322,-0.48903488535356787,-0.17428131988321713,-1.0653630843104096,-0.33368087114797745,0.64859693481054859,-0.25647011959891353,-0.19629817608245112,-0.97337644728952843,-0.26061644510598309,0.261496467334674,-0.96318953597963453,-0.682769714763035,-0.96990996047879463,-1.5797759495991841,-3.1196710473038358,-4.0662259182914919,-3.0770341598975439,-3.5716470294334979,-3.29209031146016,-2.8400051191081239,-1.4475287970147537,-0.11570554205965748,-1.8898039548826868,-0.87212384252448494,0.58192668262031322,0.77284013886423719,1.4515957509065409,0.5021559166859153,-0.79455306849603069,-1.2778288413388259,0.22916954469256104,-0.3222545376902029,0.79304861637432811,0.23462380250522966,-0.038622925346294648,0.41941912241169688,0.11554317828140286,-0.29084519713173795,-1.4002545293342117,-0.60451515490254315,-2.1357612782935296,-2.8587029432102451,-2.6083250835110094,-1.460859177035605,-2.4716160469515973,-3.0999640010756035,-3.3270402520167077,-0.9652236295068688,-0.5792383145782819,0.18136492401057161,0.595554760773173,0.08858416124816651,1.5436939555394527,2.3037935577741298,0.61177024785001521,0.27082148362906411,0.36233031101362284,-0.82189740858429883,0.3085285449905919,0.98011491188301525,-0.25559585365220011,0.77367103614381716,0.085633843602033813,-0.56204560775246382,-0.773597249838179,-1.3883274989082453,-0.27617160923689321,-0.485035597986759,-0.74716044877060339,0.060412916998962923,-0.60257870899493249,-0.88664039404647177,-3.7133742909457066,-3.3810989941080973,-2.9724038079598749,-1.8213890562418655,-0.44336796616100044,-0.91415512938918864,0.84003619791292394,0.23192852530548588,0.58327795572207863,1.148873523850541,0.16949277378175218,0.1934942169269063,-0.49001445670270366,0.019176844982622267,-0.12255606058048255,0.82785232207732307,-0.68736306757098731,0.37275214003215756,-1.1114639818801626,0.503096695582682,0.49605056135876713,-1.5874667043158512,-0.51260477961176321,-0.085235166931736175,-0.46711521461379146,-1.3513369813855767,-1.4027645491810452,-3.3088579926319337,-3.3484070132119959,-2.6990564606690941,-2.6427244158293677,-1.7197763470961829,-0.86687943698483527,-0.087038193218369933,0.27039023103164,1.1993058601821485,2.4247650650197832,0.23531708742330909,-0.40590416405044133,0.16202627111663309,-0.44679381858545147,-0.46078438295302226,0.22745119178706688,0.62773826487187712,-0.45674532530557044,-1.0131488205460457,-0.42865662259903592,0.19862204905383146,-0.19848847101042039,0.573841272220482,0.053084363316407222,-0.72529675141258831,-1.5294487379109487,-1.3743222927014347,-2.3258300355468133,-2.1829717231144397,-1.2870928234323424,-0.13892093344407497,-0.46023235213278041,-0.022765287641619631,0.5349946590256881,0.51354425475056964,1.8071281825955972,1.6801854210561442,0.40402331604975872,1.1292015691441089,-0.36316990645826275,0.99849328212369848,-0.44706316083245778,0.487212418402864,0.693618736725964,-1.6171831155730041,-0.089834069543718753,-0.53803898484848867,-1.0173013059323535,-0.93891586053207632,-0.662334851149676,0.44877363774153933,-0.095542737646268736,-2.0019574141794476,-1.817153813327749,-3.4411010942765481,-1.0466912781311755,-0.46208699060586805,0.309040065514899,-1.2627184642060954,-0.24436151986179408,-0.84638456296644016,0.042318630334225865,0.65583543001574407,1.2130445714551,-0.1236390056931862,-0.13522647734375587,0.10846395262535365,0.68780465875186669,0.64167413843873611,0.052703487819790132,0.31581569474130783,-0.57634417301286633,-0.34566454472189079,-2.3641608580677658,-1.4687834238797237,-1.5557776818871341,0.35163149875669114,0.45980454029126022,-0.2735503045530529,-0.99847723872519134,-1.4096540491964178,-1.6030861631299387,-1.4301960106031451,-0.75591124295231127,-1.07680705269453,-2.1179107364347636,0.58103795531517022,0.8837652759395791,0.46090359709598788,0.88397780982037077,-0.697185336223593,1.0585168711614279,0.21473549817017851,0.7424996916163551,0.94575778951205214,0.68993038278336882,0.88273773122430088,0.26542501431439758,0.13449867447736794,0.28310907677716396,-0.41406349510804413,1.0125012797897086,-0.197938006510702,-0.10297764339722484,1.3376627223378959,1.5833241799705717,0.24362197742725769,0.0013746935476433137,-0.89208601049016489,0.90632978247029872,1.0077526548060318,0.19784204275305284,-1.2526638189859853,-0.21242995076234228,-0.82095107708511528,0.5136875268403398,1.240354790646675,1.0388116458107515,0.76767969551615134,1.2445751876863391,-0.33269392285534832,0.4501958281966838,-0.20354020196686656,-0.8380984453657111,-0.15291954251824008,0.640375200278379,-1.1005219614475073,1.5560228497781119,-0.139167248402058,0.36065813592296797,0.42832754468554185,-0.49245906277422491,-1.0782705767727177,1.273049574441095,-0.033570043382939854,1.6709894027387351,1.8508229281926321,-0.12001886103973486,0.31034982812665818,-0.39810369054944655,-0.42190684786315719,0.38993084239684006,-0.2923142535467087,0.34205475418596126,1.2580418878554012,-0.196694771964185,0.46253505544240481,-0.22738598608035751,0.4106047253173799,-0.67236104469927382,0.94115719511878437,-1.0800370552793495,0.98817277608855636,0.8553138995856473,0.43948373393830831,0.042821069359061492,0.547959006978316,0.7084568117501312,-0.13715566769927179,-0.020675962565644357,1.3127528367235479,1.512000410423946,2.7382370849420883,1.2217288618603692,-0.75008663713382728,0.1293264361421243,0.57593010169951975,-0.80463757510273815,0.20040187914830832,-0.56926588912782461,1.3105116699451067,1.4106228605624842,-0.37506488022626128,0.30604893719439863,0.19634699547498674,-0.24846118746719381,-0.46358054802409027,0.64685979920498926,-0.58894531596213229,-0.31743944621807751,-0.097342096320854318,1.3172671958263302,-0.11586529561820784,0.007017193538663276,-0.64772074088941545,-1.4303951960339743,-1.8904214666592618,-0.93123256619760486,0.01271852610443865,0.56435859559640744,-1.0811972044176865,-1.7625883691446573,-1.5865605683394712,-1.1148903885141284,-0.77965500317907344,-0.22622786297237252,1.1679302471644795,0.73203733519210057,-0.37805235214322253,-0.79228655610680832,-0.19975006398485884,-0.69109322473345736,0.0564060271980269,0.11094370256687691,-0.36284849226683918,-0.49783008919610267,0.86917371144077527,-0.33968055285770654,-0.24660182271311132,-0.26048557901670427,-0.97052870046809381,-0.672490780750535,-1.8076438558157262,-1.5519045379263039,-2.4119585362944371,-3.023602042485761,-2.2034162896365812,-2.38947324167642,-1.8870456847576935,-1.9060071579437969,0.5751037398412514,0.75767980592647854,-0.47331203747311734,-0.36357432303137976,0.55036097950199236,-0.11710801852111076,-0.53010412799772078,0.89487990592102085,-0.46559901414912563,-0.90949699371564063,-0.2329082615826783,0.39774387791428895,0.49335203948504758,-0.87843078759714532,0.85619993388672067,-0.61760804613290221,-0.71593838376681029,-0.17394313753333518,-0.94494679350892508,-1.1774374127319949,-1.1969034964373913,-0.91373141819082893,-2.936114373056995,-2.3011775692923129,-1.8798882784629967,-0.87206090288979421,-2.1565743420927461,-1.3633294887121121,0.24486698406828969,-0.62316104756282975,1.0438083013104449,0.864630295543816,-0.66312865140999944,0.67287743044836479,-0.34036961881293121,0.857937797812213,0.92010437600319483,-0.19569924250044823,0.88390144994475739,0.92336691919477809,0.99762329311419484,0.93679876727157729,-0.63281166981981429,-0.28217856724950513,0.89358992392018521,0.43250144356638387,1.0317478934195878,-0.38947253981004454,-0.24669338651150718,-0.88791094167495965,0.54360719524307621,0.20207527885866927,-0.25771859334736874,-1.0621823426486263,0.49277828824791942,-0.89347117178567148,-0.10373177639585353,-0.88206774016663814,0.37045598706216537,0.377571239429302,-0.69234531394063359,-0.94074737210559012,-0.82790385458055127,-0.90993040795900415,-0.89001652034466,-0.0846920167490337,0.017307953453500488,0.88599308850494252,0.55813609045568358,-0.91111756204194683,-0.3781564643550856,0.80162639294685933,0.68999505872054656,0.3199520263577465,-0.24663569947591757,0.078976213090212244,0.27756317921971091,0.50004274306296,-0.73265938576615375,0.61055489451380274,-0.7580740283613101,-0.93502946346270033,0.78640324125912164,0.57853859174962441,-0.37719658667765782,-0.72227565307210928,-0.16060779446342927,-0.81661814722001158,-0.91987230729443747,-0.49497808771905405,0.010373781905683499,0.802466353309558,0.387956279976273,-0.52380374424336651,0.615626503534441,0.89793869848267116,0.73164442169090949,-0.86132128716507983,-0.74659423704566164,-0.40045523522442916,-0.80178820053198763,0.81631758334874993,-0.18794136642848203,-0.41146700336200515,0.72808147767935028,-0.73499884909717306,-0.83151164549938938,0.815624848853622,0.59059982168981806,-0.329589602225269,0.035061299351538233,0.11243265267109148,0.36132655356141119,0.79610343826753249,0.28671637796178295,-0.73393890528657424,-0.73287540941167406,-0.36852347355732851,0.49978024675500587,0.83440947338678373,-0.923996897378935,-0.16607389932781169,0.80190330082639272,0.046204959529547507,0.044506822267783352,-0.33400708405953228,-0.79891538238102355,0.06026091010321899,0.58122752214839091,-0.29209944852259917,0.19071781504467023,-0.019158660908769165,0.48172090737229256,-0.84323329564334515,0.42202923978773366,-0.6953290019628261,0.229584186910458,0.2035950390638761,0.81253814129742707,-0.67471180561683686,-0.89291434823205429,0.023680031776279309,-0.40721796891056838,0.40971766477903238,0.46996061292940783],[0.897941129234592,-0.55886020025185323,0.59185284170874053,0.18947987779485054,0.34956540882101539,0.63081410789434522,0.10016789524823788,-0.36110153392008582,-0.58100371043244547,-0.47645833784549418,0.36428569879582406,-0.98558571747764279,0.765853647700087,0.54402560538552647,0.062087992754197234,-0.93608349042384487,0.1082274443973914,-0.76560267329476894,-0.11730072978758288,0.47969258273006066,-0.9457800397396926,0.63071174529879892,0.20455984920475623,-0.62592580152020127,-0.017954620075390948,0.036476907802967862,0.063529551524449834,-0.18106161485475558,0.17449205237184273,0.72732382161883824,0.052323070844785713,-0.75885593041724353,-0.60781436395264044,0.57624434660013968,0.1465656930335083,-0.77514690474374492,-0.3907122973232014,0.8710823860407344,-0.76739009886478793,0.0781126477116508,-0.913004982114851,-0.66920402554278169,0.049080400003169641,0.63312121413113664,-0.94234016468284465,-0.710012324608402,0.46236810719169852,0.65801521789406925,-0.24955043668371971,-0.73862833902946756,-0.0011417927192359163,-0.21071729492895175,0.71008276087701439,0.93002508204897172,0.41574065266910032,-0.7327706160642069,0.23657995054339054,0.217616336264633,-0.79262147417804141,-0.68691149898821857,-0.43271544375433679,-0.71890987067954892,0.46267795289438962,-0.30805738858697118,0.46546158114810626,-0.016636906906487746,0.44738679242867446,-0.98266351259585416,-0.69825157661121828,-0.39842917363436758,0.13241375868238584,0.068572919181360145,-1.1120058706126565,0.51873755423830581,0.25031770468290793,0.68546161618627754,-0.43550618136560132,0.57023341478243672,-0.68367039201153312,-0.30821136486071055,0.57274639493448021,0.40396068683078545,-0.93151119441330021,-0.08687963725488046,-0.27200449762262596,-0.73711604114918328,-0.46893865954841274,-0.53855024966913445,-0.85673802783881037,0.0053068054353064067,0.010991782425077919,0.3157748348814734,0.41017341998542839,0.70902393879866921,-0.44826883511195448,0.78354061145408993,-0.31835804938260814,-0.89593338752234264,-1.1078921629918186,-0.72205973408268687,-1.1601616273509017,-0.3136407230220728,-0.04895924260245417,0.70992636558384792,-0.2529897796817967,0.7621179396435579,-0.21346703263225303,0.90446635187507118,-0.45911758088465671,0.703463565354579,0.69924215863346373,0.66522409947501537,-0.10251763402723141,0.4992327362726186,-0.411296829411163,-0.044697928582705673,-1.010114175643537,-0.73127010851722407,0.39711624950352453,-0.30068691021144739,-0.78959183147848888,-0.7125520717372501,-2.8487754136574517,-0.695227875781376,-0.61288259454886573,-2.368050450756539,-0.37690639970945339,-1.4922629204682305,-0.39096762259197032,0.22258045114017522,-0.5451457880010051,-0.90393402502951736,0.49350580018645268,0.41523191798541037,-0.98205144245749454,-0.70137479049217644,-0.85814769652585854,-0.84475914604086644,-0.89342521225615679,-0.088836000767920351,0.54164699509989511,-0.5618014611452492,0.36283827412470315,-1.5009721505092823,-1.1105276574891339,-1.6792157284841307,-2.5115801011853947,-4.4724996867310116,-4.9151289225394574,-3.9842413352324582,-3.3509118135469471,-5.6869901327537962,-3.678085102032786,-2.1585711457509102,-1.5642594429126298,-0.53011283713971347,-1.551863198004138,-0.97730471476652514,-1.6608083907687397,-0.44079474348084691,-0.88364972899841432,-0.31368237850389635,-0.39134100516854831,-0.038939834130633455,-0.11881801422429025,0.43125125929752051,-1.0363943101443685,-0.12157090527079664,-0.050649268514676056,-1.5325176190645935,-1.3936560917248217,-3.4612875806759424,-4.38192244691049,-3.2735943575765059,-2.1646728802993138,-0.95678821955102644,0.23602153977746654,3.5769286610254292,2.9140694995467928,2.9808445814182907,2.0890805599581066,0.077454890441955443,-1.0263566372313546,-0.92857917678299573,-0.74397523945168054,-1.4646826521188048,0.79342355272048071,-0.76385414076323921,0.042367682882144264,-0.48419938106437416,0.0536106049387536,-0.59718990404682537,-0.958737318186388,0.0099374308544004884,-1.3043541435950432,-1.6304827773676878,-2.2500247749759628,-1.2148978753309034,-1.5362144148472343,-1.093359222883957,-0.73402333151169508,1.4241616658509047,2.0151285766569034,4.5622265356315488,5.6216029331924506,7.5158056750471092,7.7445900757291906,3.2562406116457283,1.0184684280504486,-0.41205477874462615,-2.30087941042634,-0.11591217755316922,-0.05053253993603013,1.1492705967668111,0.028559193300657947,-0.21102672218189617,0.79645292213838981,-0.34066826267908351,-0.015753318258574112,-0.68110774476883607,0.83146397140970363,-0.0639685604087099,-1.8565746043712417,-1.1676973671498883,-0.28454246952539564,-1.6375030436559357,-0.5578772326324859,0.65717213884074688,1.4711813963326552,3.8536229957323562,6.5827852529439195,5.5893249938727037,8.1581238756139047,3.9233130216961252,1.0564417590122355,-2.2818615180829114,-0.88271450342062974,-2.1394096306273629,0.577531144720722,-0.52319500020973009,-0.41504368202514308,-0.90619924308724953,0.29395603859951175,-0.337825490699738,-0.75334415802774179,0.38793023880974892,0.039884961876389541,0.15272862994974165,-1.31370144012458,-2.3005841814849965,-0.93119833092435822,-0.16445548047296996,-1.4845663292509679,-1.0479541916566262,2.1021387861074348,2.6799230334801885,1.9248836781937158,4.3030359354208993,5.8295589829742323,6.287906973137491,1.857688596221857,-2.8272469326481575,-4.0017518839883159,-2.3163436617836415,-2.5321747458790216,-0.98344491370605736,-0.83465755481595827,-1.3979669240552319,-1.3026199747681959,-0.4306800186835682,0.9903290271714017,0.62705564876031861,0.044366990816090204,-0.51446975664216288,0.90716501319313814,0.50500113599755869,-0.93849957479436108,0.19114623316470167,-2.0699200149691053,-1.335960894267471,1.0526563508760067,0.030284971243343117,-1.2354139503505783,-0.77403310451587137,2.3584300812224224,1.3822624178254803,2.3785257808550262,-1.9588653960493547,-4.137295929355993,-4.4722546233228746,-1.6351527332287319,-1.7060943331092906,-1.5584318110731936,-0.897736681960908,-1.0402732420754302,0.54760013359794324,0.20812083776424697,-0.031207249049650568,-0.76764499391439145,-0.72501469316908451,0.73595044536773668,-0.40516871836637186,0.16427608103098512,0.53115353292532441,-0.44529928406565922,0.38591693351279921,0.478972239848245,-0.42258157523497469,-2.0831509385477314,-2.4722849376643805,-0.91839043450835112,0.43412445226202456,1.8326742368056845,0.41686943375423385,-3.2574136100359996,-3.2429588090955681,-0.38774604551434039,0.24461036350132756,-0.90236345200857815,-0.043030913842907963,-0.75248704311385772,-0.68140811686269054,-0.95924901949040575,0.9230756678139409,-0.54587849536112409,-0.095695615444908858,-0.18180386539815446,0.34798102147270055,1.1820650460785227,1.7834700073808174,-0.95499760445904358,0.80819687171950927,0.43916002037184948,0.58544457658091575,-2.5811256447647626,-3.1653927860540536,-3.413355448703979,-2.2015361836710956,-0.58952566014674512,0.56546075437107024,-2.88408107157789,-3.3941696729276507,-1.7075430434812455,-0.93036867917648,-0.35044804968989834,-0.13611356581498443,-2.080087026473175,-0.6723821298694912,0.25962574165754482,-0.27894851787465114,0.70512757115554314,-0.81574809619734823,-0.3153043887741408,-0.60512348295890361,-0.30925647292867287,0.1894100628511888,-0.086448256452509864,0.0827947041275345,-0.86962583835621354,-1.55151624547192,-2.0480725314482946,-2.3090696660660996,-2.5564786947445048,-4.088994622597883,-2.1689704646732006,1.3396113872443562,-0.54982757936733273,-3.8229471862471209,-2.181342941727006,-1.694769570710601,-0.62030002336395207,-1.4538224316792947,-0.588135524603969,-0.028338330078681005,-0.41804077405500956,-0.32650407208355131,0.66179752335725239,0.84383219644526042,-0.60512713937750884,0.012390947768238269,-0.23481915367123993,0.33090897887437337,0.096657699595574922,0.12334096849810894,0.6059266085277244,-0.25184285216674468,-3.6156559640634858,-3.8319914578146723,-2.5923675689958916,-3.8601237664594761,-3.7089345825795306,-2.3741233411060714,-0.75310203190387992,-1.215236919189199,-4.0500694362599265,-3.2993199923617076,-3.1305712342008389,-0.24718096305255979,-0.22594745030956978,-0.13414076736379113,-1.12696685045828,0.62524954730342575,-0.81860108096475714,0.29648038855820358,0.50612972206603157,0.27043514274429559,0.35579982037090813,0.020248890747411812,-0.30931063686991872,0.18214523576371045,-0.47322715251861985,-1.7595875261128688,-2.003225611840854,-2.659332297584875,-2.2985061932111011,-1.5187061233573178,-0.96162545536144206,-1.59620767454047,0.10140337077981675,-0.36514585145350126,-3.0765313581533436,-3.291135506534475,-4.965183441742945,-3.0189800038600474,-0.6394289678611389,-0.8852495681372059,0.36139262850572218,0.95869712944862318,1.8510161493524036,0.67544390709265834,1.310035912171277,-0.78744994321175155,-0.60876864921634166,-0.99625738596203062,-0.42762578225608538,-0.29743077024517445,-0.69091532233004893,-2.0034349542696765,-0.849506692928613,-1.044337167507968,0.56129597750049465,3.0179136062454006,0.47169631767511283,0.432363770747373,2.4138708916729721,2.38947868890359,-1.0699371528045056,-1.0564330407947935,-4.22602577753815,-4.1474224165219153,-2.4660777526043627,-2.3628415735459267,-2.1733697550060627,-0.099004385746496323,-1.4038147531937568,-0.22555411262118608,0.3152790358428243,0.088066011359630825,0.908683022110145,-0.369601448704303,-0.28397601962006297,0.39635442697512518,-0.13586743211315619,-1.6471937233682577,-0.9290694864025526,-1.6061693586290236,0.18539710505124285,0.49078248262434854,3.3338152536015753,3.4325127410098539,2.5141832404802908,4.444410964700924,1.5815301697146411,-0.65438276438620668,-2.453720420876305,-5.367512712397799,-3.0260447243385205,-3.0153145309058935,-2.0258222467253448,-1.4357770327279016,-0.69201946347520049,-1.3309088844436079,-0.60235400485192558,-0.60521405268334028,0.61950868683552329,0.605753069201173,0.9310933279296898,0.30510991723956832,0.71558015030706756,-1.5175135251712326,-0.15939255521894177,-1.9179872145367611,-3.5866044145203464,-2.2191486665477411,-2.3413448378266968,-0.33884319559272197,-0.54552024763397866,-0.32420527060232723,-0.5769358153403128,-0.70906619204643306,0.36378517092903867,-2.5152287082056732,-5.0376840391897488,-3.7852285839294795,-4.1433626877733616,-1.0040808263351617,-0.79834309764139122,-0.48903771314203859,-1.2773980769163393,0.088907712269266942,-0.43674038325351194,-0.13790246892839789,1.0047303097952871,0.15543179227194462,0.93204776085340013,-0.904709924096363,-1.0661115338188048,-1.9870812914358975,-2.3403452978214574,-2.9010129286795578,-1.2228441546251969,-2.0405466544820992,-2.9544511925622055,-1.51068112262308,-0.24069715112876389,-1.5809949866938375,-0.76396410375701518,-1.5866737881608772,-3.6700044642715137,-3.6406966591727077,-3.0864865131389427,-2.1652343648503529,-1.4925668200822564,0.053751856204233658,-1.0664689765816851,-1.9492375430065365,-1.2063352394113152,0.48356725843362647,-0.7185353213773924,-0.84739884461922843,-0.28122262623218008,-0.25735542427068869,-0.90891076676973581,0.72892819822766708,-0.80190428438371231,-0.944735518004866,-0.46092499644046359,-1.2361358135637277,-1.2997022168930215,-0.76219547113081043,-2.2722588309913849,-0.48649600543623683,-1.8004137244632874,-1.2602795075489603,-3.0409167865267785,-4.50698070775374,-2.3406133899139192,-3.5946077103348126,-2.5815719110329005,-1.3483213436241552,-0.075525558940705256,-2.1806770010381844,-2.0868847629466392,-0.94761767291473631,-0.81809328636633816,0.63980600046298364,-0.38095615326564441,-0.61035096188771243,0.7905817606518204,0.15227510080446066,0.70284193294338526,-0.8228829941297483,-1.3720520964751477,-1.46273885271757,-0.040765937196714418,-0.32008324308729186,-1.8436943628240234,-2.8703185064953032,-2.9714988514412357,-3.4302447904330116,-3.6530181447345078,-2.9539899571228356,-2.3459779176267781,-2.3936503871985364,-4.2292534842130145,-3.0726839555368,-1.3392108885313026,-1.5611975500949362,-0.12960202033787086,-0.58297068355616866,0.4362382721392723,0.45260932655621705,0.67520467904974335,-0.86625920486705632,-0.60954151593072148,-0.56824680431606089,-0.80556568753088109,0.31228692857121393,0.18930540682247996,0.35502165175022088,-0.4638401372794132,1.2789266051035602,1.5682191490907542,-0.14502031885579514,-2.6100361505012306,-1.4852654389744147,-3.1192330052343391,-3.3261434269757664,-4.1970936554758618,-0.58746672078086448,-2.6160241239856656,-2.0039972090955915,-1.9068647019236189,-1.9795611463560419,-0.34724671732384021,0.54748062900799555,0.044857160562655742,1.0606986736024477,-0.67965659470425932,0.86242098493065611,0.283208080950742,-0.56620991302943313,0.021850088155758618,-0.074051078521263761,-1.1979302406812515,-0.55079751733026772,-0.31731441606940908,0.11759421673814108,-0.18413047798869722,0.21802305818277959,-0.87124813033699133,-0.947953810769261,-1.8397464517268036,-1.9535259558538916,-0.94931358664812693,-2.2709561276576062,-2.0036854956721735,-0.040406338331273758,-1.8271111905796171,-2.7564639518410243,-1.2552351637514796,-0.17200762197360359,1.297187045301935,1.1516874182606132,0.13298385309298622,-0.82277474230976511,-0.97885765089686239,0.503342639677734,-0.34451487816149129,-0.21434081402343741,0.77910294192344232,0.16444101277223308,0.74021269798535483,-0.55211115681591749,0.082653558837548213,-0.72234672551067181,-0.90471654773518129,-1.8221509516152257,1.4246591602697025,0.51877625329248678,-0.69488685790638438,0.69078039191404039,-2.2769555963378512,-0.90192238098117228,1.6914917933649,0.0750098615323449,-1.3910516872642347,-0.4635592538688626,-0.59911845862888446,-0.12755866512372341,0.40923288624527138,0.022859373258559874,-0.738905749228798,0.61715286260285751,-0.31580939133689212,0.5655685186225774,-0.51032652124312072,0.47753868274582367,-0.35660728662321911,-0.8219861990730668,0.64107143161643509,1.8057486699249257,1.9900320184659182,1.8228865126059626,2.0666292473319858,2.2868745642908155,3.552178441076725,2.7338490196197407,3.3027249359425079,0.49236125135510755,0.33878032842407335,2.0747408760708939,1.3319602956925523,1.47984871165798,1.5274729547013053,0.23701722372643316,1.5279584217869886,0.54301894758168834,0.82286957906787406,-0.11512454208703825,0.51344374235613521,0.24025488972656645,-0.22191666030414248,-0.74387813999498176,0.89830680466178192,0.15347679393893504,-0.32248327936686016,0.7776748734107144,0.31214044750982883,0.031571847438915161,0.916885119540525,0.76649192323042892,1.3530897101486776,1.2539924370280944,0.26889590922392226,1.6159465579983676,0.44179146727680335,0.59201971959184763,2.1659189951085493,1.1122835585835937,-0.029761733184665955,1.4143132203035176,0.36163972003430683,0.80291305452547113,0.80793154317449678,-0.42257888538200361,-0.70531699741223153,-0.44559858713559741,-0.89728372446134863,-0.69743533697791182,-0.94324823093751831,0.582813095107122,0.79878087984341239,0.66659010093034721,-0.51517271414174359,0.536106276109864,-0.16350664718239882,0.52372007515454677,0.61912241374101606,-0.74315296474059722,-0.87879107607472273,0.037708448729341981,0.25539702701167988,-0.00056274002444123283,0.46739117031329824,0.60571289696065378,-0.520802337453143,-0.2197172153832937,0.46337502890423643,-0.51921353559904437,0.53605817143621759,-0.18257363102518653,0.2799275709688327,-0.30711676241230068,-0.70827616178816011,0.64398611413500562,-0.55388208644179726,0.23099217621190116,-0.542576377067052,0.32400397179834739,-0.14120657050106977,-0.80940672466969432,0.83759416259713193,0.014457535471048999,-0.17316810655089476,-0.87206829240176287,0.19617124795735408,-0.8327382150258581,0.092718841085545289,-0.19367165174040557,-0.696304610788964,0.36650329798762837,0.072267966844266285,0.37008577742152182,-0.13084255025295655,0.57452309391206269,-0.34630819286513526,0.84208632066943045,-0.92030000682934188,-0.80701465988858356,-0.9048948296834225,0.51440016250796616,0.091026383960166157,0.62192981113769563],[-0.23349350841412953,0.23932540008766834,-0.69711447586171071,0.10589764225571297,0.37486626271850731,-0.15915882827674921,0.089988362551661316,0.60550117660570013,0.066296452221598745,-0.70488155805733133,0.39805360576047266,0.93061564859497148,0.20011399668981605,-0.759066760415079,-0.82740088542925661,0.33945920221690651,-0.5904583509967003,-0.68806412242728476,0.68756394353116113,-0.342953319355358,-0.82290892481008027,-0.83044512655141067,0.74515840213054707,0.90984179354731087,0.82372578784065587,-0.2827992557002228,-0.0097056929998592389,-0.39596840711122772,0.15129218304124303,-0.73556171717846852,0.22889880148176989,0.34439326699096395,0.099566891370139521,-0.7843356485405456,-0.7520489441773287,0.58750657500513992,0.82497200664746972,-0.91010085603681945,-0.196080252529199,-0.72438255755598213,0.72490918651266023,-0.31894724555799786,-0.73139335296369046,-0.29567763580438755,0.925926444615646,-0.0671681860048225,-0.58689189136574,-0.54256382594784291,0.67266406034796355,-0.25971534018804171,0.78344370382832407,0.78316929274386227,0.826836218976805,-0.56602029668447573,0.4448387359477759,-0.40304838186271874,0.49416699795712105,-0.60325906976856036,0.28349744277496691,-0.34232289812052741,0.8505468684452645,-0.51339850424810984,-0.54006820263357669,-0.099435675504453064,-0.028178305596571709,-1.6255146534711067,-0.72696009215135993,-0.6928537816524436,0.3067190806725093,-1.4511780142869435,0.019977644901611698,-0.47817167750517092,1.1234282073927124,1.0821038856225473,0.0851003167948409,0.57145139351359164,1.0983983421027217,0.051786919002761937,0.95826649916397644,-0.11445085136160466,-0.65720806348007543,-0.42245800859409288,-0.065449361254204752,-0.58894823979436361,-0.49951409479471476,0.57695874618136189,0.52459787877899844,-0.27495885671183135,-0.29774546066775931,0.14468450628544904,-0.79262189006509987,0.087247117392565937,-2.0934942204797857,-4.2553471490304995,-4.6620953278644226,-4.099884087334325,-4.6083462237728074,-3.3102977033531689,-1.4856650923180648,1.4991293670467341,0.24640062495589843,1.4691354026658658,0.87404961429474914,1.6854867164896761,1.1202024217588802,0.48036355631503791,-0.76649049123389468,-0.606591954726518,0.49327300837881527,0.96594187335262482,-0.27239610387629909,-0.459539195061541,-0.54776625169608828,-0.47759217744175181,-0.2348013387994066,0.65273506898813516,0.87033825349277927,-0.75576350124590119,-1.4314097736574514,-2.6092384256719323,-5.8610024564503753,-7.4555190389448605,-6.7588955402022375,-5.5760667442885543,-6.4019997946396812,-3.8329821033975287,1.6453757470580219,2.6951767721625557,0.845752984729462,1.5284080201769132,1.0062435508987044,0.71896305989990994,1.2897950232889404,-0.96824084049504666,-0.21608042699189059,-0.047166936587154318,-0.842221876532874,0.85020349874313128,0.18828823338091946,-0.11511735758783152,0.601884386888613,-0.22142993525862773,0.39645714991485942,0.47755543632111996,0.18041065081523044,-0.098212733062186752,-3.5231208519181916,-6.1429433737151227,-5.9069692934513531,-6.4828344444411483,-5.0923998850302006,-4.61705520747687,0.037489062004530713,-0.012294040063351521,1.8002465750089103,1.4983023699065707,-1.8980656346838549,-1.8255335649071951,1.0293897753754264,1.7271863781738384,0.68184746030482857,-0.08416192249352869,0.3567944752782557,0.782928477511109,-0.26908724006979118,-0.77279721940546675,0.13764944841736043,-0.385781981825893,0.75241304266530207,0.91018708114811331,1.0767214653032864,0.93095082615220159,-2.2286913886124116,-4.201380661148419,-6.5350010362947577,-6.3256307529873927,-5.0478185342213635,-2.1120433181983844,-1.5335550460891458,-1.6248798042523804,1.0675439158910218,-0.88526092189971739,0.061422706726106634,-1.5726249512161421,-1.9902931663279895,1.5508352686698579,0.7795739826725725,0.018711065112439921,0.10257015762958302,-0.16434053199567847,0.77501244364432642,-0.9203383202027855,0.18938666241321756,-1.3334431216493616,-0.35360788657414266,-1.1372431643942065,0.10873082943616642,-0.8055155218195994,-2.7450615681999575,-2.3358075892854733,-3.6799394374011762,-4.9488075614417495,-5.3965203167500926,-2.2019826201821964,-1.17676531605457,-0.18475521703005315,1.0894466552564519,0.7345439619148576,1.2839451659192358,2.2889691166032038,0.7656435342140604,2.0336673287344071,3.2636091098542,2.837210243209805,-0.28722402627431559,1.1071530515499131,0.31401060445191653,0.44987749633711593,0.7511514807809847,0.6907163091636519,-0.1123624615105764,-1.4416500358689586,0.19479262107546747,-1.0680343222235962,-0.40771537519305318,-0.83825127609702688,-1.5191205585015946,-3.0540759305466847,-5.8877898594836227,-3.4199310611666234,4.7790167550840685,4.1964007595851704,3.8180145437516764,4.5916751538461442,2.4262145589179709,1.9521329590417489,-0.85928192635630662,1.3471388455739388,3.1406873561803659,3.2113562764326482,4.1057679570030166,2.1840645434659582,1.6348580370971775,-0.33540310745215812,0.88825465944730608,-0.99105764223665538,0.39015735601930018,0.0892199961045096,-1.5835117094536633,-1.0321691818371352,-0.46986386797232821,-2.0429998296937382,-0.354697176876138,-2.0476640066606011,-3.8191611086712487,-5.4978331237093059,0.39841883811110679,5.0773428906333438,6.6305346106158334,4.2382362813742382,4.1098176958557673,2.9201570418956613,0.99153772946810614,-0.39815134970270688,-0.047528516547181134,1.0943473555014693,0.88742702743497892,3.4309986407699129,1.7646732878136648,1.0978667995930977,-0.45527850220212912,-0.79286078360821222,0.49233576143436986,0.59936134641785466,-1.1303419376170303,0.3854943229687362,0.0010497182697496784,-0.045890235266557521,-2.2982730564958964,-1.9995378811005267,-2.4358997931825042,-4.3254763356127581,-1.9765316845163763,0.070932881115799026,4.2237261738937866,2.9059856120578278,1.8372035330559524,2.2767333950839364,-2.1322163151538072,-5.3691542880626448,-1.2254200778582485,-1.2589805021769853,-0.65780320772663337,1.7564220987025874,2.1551339305552797,2.4175009118921151,1.0247250664659204,0.99764643054074176,-0.66783943080037234,-0.57414504536694488,0.52676464763680431,0.676106277777921,-0.52621497778629789,-0.10531626894364432,-0.069783507712939161,-3.0233064880939584,-4.8110702998512611,-3.21669786432926,-3.8914607543803763,-1.0018485053701336,1.9616822627923316,3.7075149499102542,1.634067527098451,-0.480030837428734,0.92087794016253133,-1.8267859747753585,-3.6977212479765127,-1.5434427104231445,-0.26608598993167903,1.5517550014668189,3.8343637618234396,3.6210593188673168,0.86419112813505206,-0.16160445166371054,0.65077797865996967,-0.76620110478071812,0.898722312618103,-0.26454929954445006,0.55470962242344668,1.4214615175988183E-05,-0.61356093050336213,-2.4114129075062682,-3.4401684514563446,-2.5929399183095727,-4.1575346765730368,-4.8576599442308916,-3.4182717531789373,0.3712010988168134,3.2690929631448968,-0.520777528907906,-1.4652850067972933,-0.75355304708573889,-3.4722083647147746,-2.658216072706526,-2.1541324758635754,-0.87166094017972673,0.51247641800487731,1.6646946665101763,1.6078960299324709,1.2459414268725,0.53623592328554348,-0.91688058736803568,0.5834906982652599,0.33323351316349031,0.39987325266536738,-0.55027292428158658,0.79792035941966577,2.0909849409477084,-0.59256994770865634,-1.0634409683283406,0.50973461556286348,-0.96582227070251714,-1.7987118742713553,1.1606665385341883,5.1567137411198036,3.9792380342639677,-0.7710600953975717,-0.5977095087855403,-1.1223623116144603,-4.1598971697119342,-4.4289300240886815,-1.920433589030677,-0.76481680014680609,-1.0753819156634799,0.042620949109587608,-0.012311320985945755,-0.4485183657416823,-0.56450954485238092,0.78775366758357435,0.43676731043349104,0.058085266213597782,0.27963184975650912,0.6778264020487017,1.8068175109130742,2.677605725435368,-0.86872762919237545,-0.10492861181665029,3.0352497647219572,3.2079092986927678,1.7586428962553604,2.3558015615066945,2.4115360166714304,-0.67472768329183863,-4.007141669681344,-2.1657573914928352,-3.7085649096582523,-2.1815348668694519,-2.815361943180184,-0.26076723501464005,0.67402230762052151,-0.56369409470377918,-1.700772581969058,-0.74249706845192631,-1.7175508418159036,0.020011413582732052,-0.98377886134375991,-0.15752639861662324,0.62089425364564677,-0.18354163189879563,0.99918494402747848,1.9632244720056258,0.68649041674440026,-1.0745848379366181,0.71095955785829579,-0.93183107067253923,0.53727573222531666,0.53621013300223375,0.52929062766821078,-2.7012196838031195,-4.1216952632664219,-5.515885345872741,-1.5497730139087658,-1.16853993563436,-1.5102387028740936,-2.5714794000294532,-0.75985299671752615,-0.714624796175567,-1.9066509492552888,-2.5679950692030782,-2.68457957541608,-1.8969901576986505,0.43925057365959708,0.98898852895431266,0.98235912453400476,-0.97448460866787989,-0.7294937152259775,0.685498572333463,0.92707219532926333,1.0832678066299879,-0.47079124959850738,-1.4806938973829245,-2.3164259151770463,-3.6174101768753828,-2.0781088950004754,-1.1092129967704851,-1.1450550436704279,-5.229492269353563,-2.8015827719566762,-2.6918041178849728,-0.33804639889035237,-0.49367556082708136,-0.94478159386398886,-1.6884828831677685,-1.2106640899752861,-0.3972801052309049,-2.6796109574782445,-1.037956956093933,-1.1323969769503228,0.4833539393010905,0.46158579711876158,0.9837102942320447,-0.46196586850249444,-0.12958166778568284,-0.26070491046932032,2.1338137822766496,3.965970024077607,1.9392744672968765,-0.70091721832302245,-0.67675431920663021,-0.748493794086525,-1.7466810173924994,-0.013644715659442088,-1.7203934893012802,-4.0481835527301149,-4.2839912024194131,-0.67160589161195594,0.80719090268890648,-1.5756244935457093,-1.241174639500473,-1.6549148786090873,-0.25433847327474923,-1.7384370373256,-0.90202003447117829,-1.1971882615117395,-0.91607922575712408,-0.93071239240278869,-0.089475376921722416,-0.16245236626773824,-0.78268734523996975,0.59994321660038241,0.44370445609995884,2.5375426271057147,5.6957867865108849,3.0656253649096783,1.1467680780000098,0.82713938149567212,-2.0266031304762033,-0.180009278527718,0.18075678529668213,-3.1087747000868013,-3.5028522086951281,-3.3303805036047325,0.61671280769985259,2.1236949316085836,1.533662202044066,-0.22170781487186639,-2.800860809402665,-2.2494489151443555,-1.0098966581733095,-1.6941984158895893,-0.5438619242014735,-0.55503249797661613,0.5180757495769942,-0.077858027562528076,0.74010170533836661,0.95967810608756265,-0.777724707691582,-1.0834571076116366,0.79620696591604145,1.919373726006576,1.2386275010157273,2.417971950539775,2.4046333482977276,0.068157920314689438,-0.6551189474335628,-1.8079480680467071,-2.414105420313851,-0.31551590638674482,1.435643649845326,4.1342366782818525,2.4411174564960891,0.36849223274586423,-2.542483039741406,-2.3452255176271839,-0.8244028167574321,-0.9862082745266012,-1.8105861169093032,-0.59762735804861844,0.2762216025614817,0.30455238948558061,0.95318659206535039,-0.0842688538803005,0.87732458331400964,-0.22905689464944781,-1.6081082301818956,1.1059567458782236,0.074601569355506769,0.24960420779286979,2.3274361153419703,3.8207334701895173,1.6725219990264957,0.97920122179789859,0.70729938071910825,1.1420390949821435,3.7171470309723325,2.1199903430235709,0.89960570200083656,-1.1171499017659079,-1.8335533036694005,-3.999754075276388,-3.0797714573476647,-1.1488998622921958,-1.7295913496140944,-1.0352475229538825,-0.93232755127461509,-0.61054894023832273,-0.83159652544369289,-0.87116401271578969,0.44212477921472393,0.840881682960327,-0.51621943912423,-0.19527899801116982,-0.26520767649718197,-0.86153630873631781,1.3611629213176679,4.1022090522179688,3.58634320482234,2.1008053293643152,3.5460537469690543,3.2511907621507588,5.1371109296046011,3.8914797728550514,1.1844351025433597,-1.1512175268735907,-2.0161201738479178,-3.5303070303973612,-2.2089963070019385,-2.3042064290765318,-1.2652120298970706,-1.4349807864013873,-0.25028106895959656,-0.75419203269253221,-0.93827001938210253,0.16211206428703934,-0.18989784152800773,-0.20027371876120081,0.89674423761852151,-0.91543416329714944,-1.7657263069718443,-1.7235981619481595,-1.3741454428639193,1.8948242287743851,3.1589538586944195,2.3274372175321032,1.8914686148019282,3.6854930281636507,3.9359641951165965,3.2901588394699255,2.1919106961405563,-0.10410591893738937,-2.1431175901033415,-2.3008586180538915,-3.3649577569380376,-0.82975472620853541,-1.6389252538538519,-1.6714255551238832,-0.84268780825494549,-0.78082287734402844,-0.94470146671702449,0.70254525612393148,-0.064759568548709845,0.83348155665839174,0.5527650730464444,0.17732389802224191,-0.72035348866003546,0.3291969360663945,-0.43340592101941533,-2.6656908205447323,-1.3405130083050647,1.5960920968037222,3.696481177968252,0.39035658479974622,1.3351910346635825,2.099540117818552,-1.3512179644731672,-2.6757892849543246,-1.5529547474152945,-3.3587669719842732,-3.1398563537457176,-0.876830239904697,-1.6851754835051276,-0.7864821746898637,0.16282729386780584,0.63107321388041171,0.19811808403421041,-0.74897846209412211,-0.72946934518247986,-0.82298735337210016,-0.32852021852904945,-0.29434542045665224,-0.94913964429334907,0.025960950392708619,-1.0259561797768568,-0.670925630579406,-1.0661873479822861,-0.6165676412115,-0.13188218963509696,-0.48949479857392914,-1.9636421424508612,-0.50385275200596469,-2.2767808813558856,-1.3988138709393057,-1.3119454886990158,0.1474282730290592,-1.4963909644114326,-1.2677965757717047,-0.41023486282929994,-0.0070790452075933539,0.48239563723672257,-0.72941331410409749,-0.041369485067473552,0.17149025441197743,-0.869950926889313,-0.52620895927740574,0.39863539629771311,0.96593593152516322,-0.84012687571352673,-0.90577495146299458,0.95068408645350977,-0.97689679834534959,0.48289209181709952,0.24167943996400418,-0.87352500040956638,-1.1623409148778761,-2.6369365521046575,-2.2079011562484325,-1.0312837226882261,-1.4304550503171267,-0.77932524873578946,-1.3176277335279869,-1.1733641439972102,-0.034944632690136569,-0.52152672780695564,0.25060802942134847,0.45098625750113941,0.89043680807074044,-0.1878402338103376,0.9959079585046906,-0.96357221495386058,-0.81398547664142018,-0.037910619302611227,-0.20439383629914087,-0.78062832159019457,-0.64919070417489422,-0.97382190915468236,-0.083983435200980033,-0.012614933433878236,0.79680785338461746,0.30024341622568551,-0.43168177343756864,-0.852008754947111,-0.19419284238873383,-0.261345850304486,-1.5127944483030007,0.68776502095585745,-0.39035025528596917,0.049355813591240867,0.24365985345540595,0.24810645828096828,-0.3321552373530221,0.19530254353072538,-0.78899785600735317,-0.93765235254593915,0.085303123154307339,-0.8379052848949563,0.041479852974980476,0.98075309487964712,-0.48540116915731246,-0.098148060542600279,0.6004698758947058,0.37568178557589738,-0.57562210856733009,-0.99003691132647775,0.76942487050286723,0.11770767863733123,-0.14199957863520807,0.55229305361969994,-0.0021653692248115863,0.42073402340558075,0.75580689206524143,0.70734957685105027,-0.63038982433750745,0.53880531412493693,-0.81810527658933085,-0.94290260967933692,-0.58026618863468349,0.810573373833007,-0.22819391136439238,-0.931000124630984,0.30061272033518782,-0.35448046184819215,0.66864255520917593,-0.53007817246489142,0.37843793974185269,0.1195140393076064,-0.21409233250380133,-0.21169459689953107,0.28125569749682011,-0.722123370376473,-0.015299812432052473,-0.0640201927460824,-0.55349427533964368,-0.31419400745732429,0.97114754187462271,0.90773498728300206,-0.520454438179943,0.81804091940542722,-0.94199965891521409,0.26386019646369863,-0.32790624225880305,-0.2809741782401568,-0.84518994756284638,0.50087756733450917,0.50976651325345346,-0.0015255860060107152,-0.29900291995098949,-0.36262360092374668,0.82540603718972116,-0.11898140940767776,0.65319885483626217,0.23090452944436324,0.20894700624465346,-0.5544010445263241,0.601239219122212],[-0.045049662257102163,0.70703923036672145,0.95445606389756121,-0.36847485106833044,-0.35008916880473917,-0.66819998885886744,-0.930304981735677,-0.72896264387712006,-0.28004199884833858,-0.56396616416236678,-0.18017291518867618,0.26084385219069373,0.68463370945365964,0.56947605772916521,-0.72583813968605948,0.57755191700836739,-0.39830710804011071,0.752573032748221,0.50794589217190911,0.396906117627819,-0.41841310142465549,-0.50929051428534577,-0.83223501212533335,-0.039844685718344874,-0.6200364742521367,-0.581483040741404,-0.85146873158005476,-0.037100634089252238,-0.59976289309550213,-0.37532222521273528,0.75379565812358429,0.72703280108119317,-0.99909323524330673,0.091958360720750712,0.026629694052000292,-0.79584337556546469,-0.47405863102669987,0.18666467678998297,0.41573897202908239,-0.018467610811245715,-0.42816606784510647,-0.582544977145233,0.44641393358909331,-0.0645642041228647,-0.20333948534200866,0.839165984817457,0.024153602632884713,0.17770337385756335,0.59065193955173734,0.31349460995470319,0.0521866177796084,0.47833149669614228,0.70100111407274435,0.048692837845856651,0.019652320546867497,-0.53575914797175628,0.53927424365215981,-0.0037555800766080321,-0.7477681472013209,-0.76807500013612928,-0.81073639194823377,0.12893745646418994,0.89678110467236383,-0.86828474939370914,-0.14228245792503383,0.054276189881129505,0.096716475331119184,-0.58957780785688729,-0.33698006908270894,-0.67186451971549843,0.28450895788708586,0.9010547288243137,-0.19149675700165722,-0.17526114873156787,0.23017775523732748,-0.23325277707322184,0.38098446045439249,0.23721558369327422,-0.63583134526963136,-0.35551889584742707,0.40132406232940232,0.078812641594006028,0.41165306484869357,0.09677028471304186,0.58834794618915576,-0.71583604439213222,-0.885613298164135,0.17178243877146088,-0.56821179842603375,-0.46117792193535,-0.13732785808111342,0.6913557545643404,0.38417558476376551,0.31057826131436067,0.017755892765822137,2.6084229626916273,2.0223752300724138,2.0230095876649039,-1.1356017131139278,0.17983747843146164,1.0375791776139112,1.4931797795121249,0.91628693379186354,1.151171439716107,-0.20038867028619148,1.0791395014907859,-0.01340207742585202,0.10091017351516113,-0.74581454030508854,-0.11435812019176821,0.4083837078236815,-0.56857304376334616,-0.2761685989751107,0.97491540324133763,0.37706376534967728,0.6549963478824532,0.90965702105551693,-0.43411493301670984,-0.9486958487621211,0.28815745983194097,1.6246649660997723,1.6205898185759675,1.5963036126374612,0.28016368168431627,-2.2309509598662571,-3.3649799438871462,-3.0941163689495284,0.98376220916702772,2.1986705973919731,1.7771913956240204,2.0976102849843468,1.8873401332766857,0.014198644267383282,-0.58700285077935244,-0.738139882678082,-0.016631424900438341,-0.43944541711334395,0.93387123241855408,-0.23147670460494341,0.90997185645484713,0.80144254486308342,1.0711470474777214,1.1834026183178712,0.65938382103747251,-0.79995297525383047,-1.7947921057519922,0.26781692348378561,0.64167635451454252,-0.86628249668504986,0.45168726643974927,0.434887553154403,1.7402580781541566,-0.54533487577531314,0.99739527950402462,-0.605048906762783,-2.0954091993697825,0.11185962901023011,0.59837528128275164,0.7521488357386239,0.11634748110205148,0.048191500836033463,1.3404089512799522,0.29802114297543714,-0.045015418096553191,0.32654092179965916,0.68792415026541687,0.76134942681308726,-0.036002507428145529,1.7112653205902142,2.0792617516641982,-1.3365308887625875,-1.7123975265824603,-3.0117859202158348,-5.0119474888406792,-3.8595591737430972,-3.4208967142403641,-0.14334775899799235,-0.52632086087645158,1.3961319864838637,0.31778934591253594,-2.9594450273665487,-2.55488491254169,-3.2228556686588248,-1.6030252887252359,1.6527356851115669,2.2722545673022054,0.58977261318640006,-0.21844085436903218,-0.72458532089956873,0.99466915393912492,0.093633384174310358,-0.96427552654082782,0.85763017308162626,-0.64613569010533067,0.49263001375131577,0.59955657159951026,0.44321472633311515,-1.7601410028446263,-3.9550024840301683,-6.1837997399727147,-6.9141905888908539,-6.0354921187620016,-2.3511764121625416,0.14734950670866084,0.1490418988451199,-2.0126194894934293,-1.8464485894262632,-3.8443255040971782,-2.1794046458100356,-0.12848424779521378,-0.96824814712657414,-0.97090113645599441,-0.60230973818506339,-0.75104398054468613,-1.4830409664410182,-0.69139441068066376,0.14489947700366512,0.11878121993654847,0.45897517169937285,0.5966319095476128,-0.07465358422885203,0.72460587893568673,0.88663856782722306,-0.6928106673289709,-3.5390867467457818,-3.7898678715259524,-3.3254302949773478,-6.3938901553492018,-6.4502318872128637,-3.2442760648081772,0.021669556519339158,2.6932662949537174,-1.8334073322723916,-4.42371539175458,-6.3062486351736462,-0.43040289195571069,0.35684506513655967,-3.2661012534388578,-3.7033469403346038,-3.0776379557020159,-0.867109799806571,-0.8030663228495859,-0.71726054595429189,0.778153628255886,0.4357585514483483,-0.303750041361439,-0.45612086230040577,0.10231200050919716,-0.37580354162185792,-2.136899360767893,-3.9480086455258951,-4.4875215384175418,-3.6561100757738592,-6.6086442128501117,-8.1472523760226814,-3.3740515861302671,-0.80228751645359608,-0.10828261150192994,2.6680086148143571,-2.6143784526709015,-8.0506853341059177,-6.6158348620283709,-2.1801936365753161,-0.9573603212921431,-3.8640238433344067,-6.0534784505967707,-4.3729176949346158,-3.2333157216349591,-1.524800067876388,-1.1793803303498611,-0.27174878318647833,-0.17405197845337797,-0.72991701447941149,1.1595226685440747,0.53074114244392923,-1.1783047589945692,-2.6282162225854178,-3.5078004985717,-3.1695095364084107,-5.3885548241646255,-9.1878265162342032,-5.4714928061629484,2.3292567442021168,1.8141076830387271,0.20581836497507974,0.616548163015582,-1.2230922237274102,-5.60078607627401,-4.1249805688639327,-1.7993724380915377,-2.6839702531757359,-5.3855143525678706,-4.9710337147599057,-4.69543636317458,-2.4721242090151665,-0.15250272575783944,-1.1061958526113667,0.41273966898344361,0.98335972850382691,-0.28252145688827868,0.64277050913909317,-1.4609581715136644,-1.5852468877433861,-2.5398886620064838,-0.60882970426103,-2.2469421995148324,-6.4841337072386755,-6.4115418952632872,-0.62265200666452314,2.8411112398022405,-0.33460486369794296,-1.2665931644398873,-1.5825312897390698,-2.4641373799864446,-7.0031767403071319,-5.92103916465959,-4.6650546251810558,-4.1724724915036226,-5.3695018431224337,-2.8409656548678108,-3.0122847441211253,-2.0038674419310141,-0.71168243704056733,-0.23939665438751315,-0.056834887358039154,0.87364783651695177,-0.81649010592568227,0.54206497154425992,-1.7516001605414591,-1.3013449906569252,-0.19352295940563866,1.0158848821261215,-3.7824867666875184,-3.7109689388168552,-1.7948412435444912,4.4901138708216219,4.1764262893508652,1.8216111462123648,-1.0154466143291334,-1.8157215075514972,-2.3488063979049283,-5.1219230219917105,-2.7639970026355423,-2.1307409206292509,-3.9418059280344546,-2.920220024501087,-1.9081664567987502,-2.1262791717683029,-2.591798981027349,-1.527148497893837,0.2344220425314055,-0.1633154072895732,-0.20490370374880199,-0.84239202214113806,0.50326791939155291,-0.20969154059626946,-1.8546540369392717,0.771226701984248,0.24693128585042179,-2.8297986008078415,-0.33387529782348174,4.48511268006289,8.5623717728562525,4.1723250029081482,-0.41568882256161616,-2.0382071928305763,-1.6900032793552167,0.60280170450151471,-2.8691743665205105,-2.4446944977457208,-0.46080536924626053,-1.9847639030593254,-1.4195799034279848,1.5418992356805419,-0.88184808194875541,0.031767802902137786,-0.070225315803793625,0.21433764554024148,-0.4803704353546745,-0.49392134300503926,0.40208881716094108,0.14140808096048921,0.3431325737998297,-1.390642177459001,-0.31632385778808048,2.649456787021768,1.5098977344873048,3.9985028025405183,6.3845187552324081,5.5600962269766017,2.3901684157115595,-3.1810709594546656,-4.3052067856125964,-3.4911603182748272,1.7741927310955108,-1.4066854192494172,0.86058027969433148,1.1176697160476281,0.073486613474326973,0.98505470540402262,2.3372058693654347,1.2991483217118993,-0.98458616969124468,0.93199545825995911,0.053798047728268295,-0.22856625063858874,-0.59106742906077347,0.15957076939444481,-0.93239963320700425,0.489278912200332,-0.70905340584653165,0.86963643902521859,4.4257923119772071,3.3743846141686418,2.7375104726554249,3.8650282082665783,3.6197464466603195,2.3347234687078613,0.46545452627820716,-2.533636292243084,-2.6930779815104455,0.76610397853338241,2.271794210288395,1.6675020247916599,2.8494264752205871,2.2509160293372088,2.4507943014533051,4.4950616743750977,3.6007112989807069,1.9131604119078889,0.63113119252904315,1.1036531887906476,0.72654414536733,0.05324726746138661,-0.26288040018390074,-0.91694032213201582,-0.049369552308194634,-0.97176051251244611,0.38166614839722535,2.8998541562287774,2.6938838838568673,4.3149952282279518,3.9095314675195052,3.8244982824526774,2.9227838600809046,4.5169556213298483,0.86328717398924981,2.3177387208377134,3.0454971707966418,3.1514582031149336,4.5235880923732656,3.6871437432772489,5.450464581520472,5.7051412085080617,3.3494017856525189,2.9617844695313518,3.0970079794467451,2.657032579312852,-0.24889865160509134,-0.79608797272485121,-0.360200470679917,-0.17033116067189938,0.51056556332762815,0.37154042363487577,0.10445813367191177,-0.733291139967858,0.1278906908397757,-0.23214196060920944,3.7693699699986869,2.0566872984540661,1.3601166652310068,3.9554693848213529,5.89559559380582,3.0416482005145773,2.7221756968407815,4.1917674606441082,3.2717615987053721,6.2754728954785861,2.0899688177024358,1.6824601296124835,2.5260777089481081,0.42568980649772753,1.9889294377003433,1.7770712937570161,-0.58703915685952557,0.46346741847726386,0.46796555073622437,0.74852622886543374,0.95789201664901735,1.0000394910543295,0.38407761558070519,0.19847953901947577,0.24133971525047526,-0.87290445217014012,-1.7348397140818339,2.6074819713519619,-0.2791295696706651,3.5643463724822548,4.2703530286179525,2.4042312700037982,-0.78562585353095116,3.6399016243702227,4.55027988732561,3.7808946614200836,5.982361712533848,2.2167059678355487,0.57767199581483286,-0.10811288883464509,-0.29970572141032981,0.093754934103842363,-0.15673448999457071,-0.993531994290675,-0.84260993997627753,0.46160849026328427,-0.33837823368979308,-0.55285995798842424,0.82613960699648636,1.2612995867706958,-0.60281015202136246,-2.1958717628913265,-1.688565135737887,-2.10138457815112,-0.71950119399109758,-0.94780592259576923,0.33558278164649885,0.547540920946313,-1.1851657243942144,1.3395879509362907,4.0690901219477622,6.503855634305018,1.9538503009885484,4.3158361263187635,1.4945479339801453,0.015544538768400517,-1.6263152931769334,-1.4085103445517877,1.6152385321685403,1.3251595776757952,0.96678587178657593,-0.93084841211923663,-0.944688915249281,-0.60729423167184737,-0.32480735304483849,0.7314056798447448,0.80536422710957256,-1.4864726608078633,-0.94469882065408661,-3.2149681400271408,-3.1611289050416445,-3.1419342129183865,-3.6359097126392328,-3.0949169063038333,-2.2595292397053837,0.32287709409874371,-0.84794931547718133,1.2283271830323603,4.8381712380372406,3.6942535699371648,1.9333255104077241,-0.38486841607848754,-1.4879129695020597,-1.1405558744657307,-0.6841089686654277,1.293852702165494,1.1201279576834915,-0.43561547117803384,-0.32600055153436669,0.0094814854718193748,-0.035823805702705762,-0.94460662425235209,-0.83592757306030063,0.99074407318326385,0.60569280034887552,-2.1031634124707761,-2.5987337646895297,-1.4534638017232116,-4.2938789564097828,-6.723731592706824,-2.9755275355739514,0.756005848487347,-2.0260858058514892,-1.9826684277370026,0.97148374702583151,2.2166542851032509,0.48236164740860621,-1.6295606063555788,-0.49706591814444762,-1.037902170463012,-2.109809969952412,-0.2771356724127258,0.49753193264808554,-1.0392094801001564,-0.18262678096406371,0.40293458092047285,0.88074630307068424,-0.46661467943386015,-0.0683788080952797,-0.55707380044946064,-0.64828895234109307,-0.19736090684325097,-0.57174436700496845,-2.5235675533019695,-1.5168532872932794,-3.9192500597591002,-2.6917320808630247,-4.6221440638691842,-3.5076012027735795,-3.4354212460818276,-5.4242415002048894,-1.0482546653773508,-0.09453977570620091,-0.37535637246430043,0.53407014264927766,0.780701601747154,-1.7205373357525915,-2.1113337791431257,-1.4710819841411031,-0.74539488555431843,0.38137241153713225,0.49078022289594664,-0.22382330597563149,0.041124946922587613,-0.313523599558288,0.12496202571688439,-0.67376059997527071,-0.6312379527139147,-0.31357669503259172,-0.91770864140162622,-1.9045065416638247,-1.9090062711936651,-3.7243404385451759,-3.3783757987666805,-3.3345107364058015,-4.57201802498418,-5.7098469037874562,-2.4702348354099462,0.44113961921156991,-1.7647289445243757,0.44719832151835914,2.4285648325250575,1.2422754525132318,-0.21756488874126387,-1.0640885073628656,-1.280150712973702,-1.3788845598276041,-0.21984307303285461,0.29007562582182012,-0.026930626927966324,-0.27460533812390886,0.43751687902841563,-0.958361726611708,-0.43409692668662941,0.37637302073425943,-0.32196818557725221,-1.376956373543526,-1.1135067669313885,-0.72306426902418652,-1.0417182849919733,-2.502555667483918,-1.1384609505607948,-4.1344889613839886,-3.8376725353410479,-2.6947129373546628,0.14689050603978435,-0.2960684429512962,2.4888632343276491,0.25147609355686912,0.0230549288154649,-0.37691986535777178,-2.0370760651998445,-0.80067303711401616,-1.7990132298907828,-0.55682474930326031,-0.82005324819528391,0.75998950037149393,-0.20289518833295217,0.17439634687006311,0.52360550633327374,-0.15857958930138652,0.24003400928883151,0.26029130733852135,0.80371975971934628,0.55850240299605691,-0.53652760613677386,-1.1968903799568611,-2.29779906709668,-0.95664246991557245,-3.2239369786582324,-3.7780481568676554,-2.6351179833235059,-1.8006419449320184,-3.0283414454024715,-2.79000110689974,-0.4051559115702853,-0.836559266077141,0.17501637358216809,-1.20124009461432,0.31096804189021759,-0.9420394802362434,-0.58527624423829583,-0.12150331035550688,-0.486600939730341,0.70699124676500968,-0.9840440079495516,0.6031166443615763,0.86725628556014511,0.40757437150058456,0.2494646678685753,-0.018296999862012366,-0.096157321015295616,-0.40649720509514531,0.39498430067605445,-0.039254496641694808,-0.12798230342037892,-1.9368796602212093,-1.8171577785339401,-2.87512622439445,-0.38570760020704647,-1.9875667483806359,-1.8158677207315193,-1.6873727080655836,-0.59862641886622237,-0.72166312431427349,0.31834485997995626,-0.69420757849199433,0.1339607908806035,-0.92358616997098575,0.50229422631780063,0.23031005600016097,-0.91691042385851518,0.68205556631183972,0.37243526213450129,-0.15062275955016857,0.78037081834877409,-0.63017549814198892,-0.24910200538537564,-0.85612319030618445,0.86916535621004432,0.73730584128634336,0.74623670789703578,-0.32368916614152921,0.64873432165418476,-0.9652690831410089,-0.3670091113853311,-0.72463694108866017,-0.59221511967117668,0.46667040859659692,-0.057205325484837144,0.42027505925869346,-0.67727796811483709,0.561454442125491,0.59972398709492936,0.35068659547282688,-0.73055341827243259,-0.23601409105398419,0.71413128157804318,0.7030508591342024,-0.87733493553350439,0.67084020826539037,-0.61429173947046123,0.70888726865355256,0.90525588295667236,-0.949797328538167,0.098305394453138684,0.65773706308460667,-0.96357008999379823,0.10716076526192975,0.36995062388943079,-0.2946459200673951,0.50661323103430367,-0.58551611080091259,-0.78533634533422836,0.77801941697393517,-0.29496221863430094,0.72847085060946215,-0.35157515264655237,0.1016058926943717,-0.8561481385753249,0.30896312338717435,0.93733090345623471,0.75073797523544084,0.21557437498847687,-0.91798083294089,-0.09241197588500194],[-0.47836486598400629,-0.91766842078308963,-0.97825133333832548,-0.420069341277736,0.016384909402758385,-0.344306779720032,0.047847135480422187,-0.97878825477268,-0.801674852055346,0.35159758075680481,-0.96265056075651689,-0.22894504909820157,0.598531614410452,-0.063575250467968747,-0.024746947342042181,-0.76106688329786631,0.30062411506689335,-0.90328021529283387,-0.762559405417442,0.91366182822438979,0.9082381426860755,0.34679078745971936,0.82170457012099418,-0.35435118589287218,-0.45902426888189474,-0.88443893840743182,-0.38747461111632853,0.55919899770952708,-0.18629805892067874,0.73350930480915566,-0.36502971470590206,-0.50668710633492431,0.82323671589756242,0.14261464734683504,-0.42333264129782755,0.57526426610073544,-0.98542805533861433,-0.47481043714352339,-0.65291878718989493,-0.95937899179912844,-0.54556192943720827,-0.57402698115362827,-0.98343792506683236,-0.76868693393239651,-0.42858520804096256,-0.042679121395003433,0.049710167637907324,-0.83481962971330714,0.16859803589461225,0.070029974482036239,-0.3632932116106587,0.6540181905282747,-0.021866219594081082,-0.83164266116527963,-0.00065011857107755144,0.17484434655627434,-0.73937299090408426,0.3760998525545467,-0.96105869018763534,-0.099176152196584183,-0.95683216863891252,0.48860072295937107,0.18438637733128233,-0.58592679338380171,-0.37365931142006509,0.37141197783529112,-0.1167467029432275,-0.27524819273093137,-0.39747162909917771,1.3027545261099796,-0.26398008464171713,-0.26191039390534815,0.59336487886172651,-0.94238281966115356,0.46459142463769076,0.514983866525253,0.33046006655029769,0.39528235518134791,0.97796040763849235,0.58355983088878061,0.065667864431472323,-0.55265498140484792,-0.60939903818508567,0.74367296523764381,0.09680275499836552,-0.019083190579091885,0.51514809105848869,0.65499427867559978,-0.86264112406953186,0.3631258039619939,0.18791414441200122,-0.84763109033161554,-1.2169360094348511,0.24853188931531,-0.62467473942836949,0.18098428347024714,0.022013541678184905,0.8093269959516014,0.39368813700825628,0.27024893969410713,-0.96365721834278972,-0.80552008155157317,1.0182246722401622,1.3598344292757978,-0.13334046444347861,0.83904300097179518,0.873245095120301,-0.27898473141477959,-0.28653839383578783,0.4843838827146143,0.84439548970790645,-0.13661883879137388,0.39654125591673828,-0.5320985169632,0.815386312423103,0.41628396879018809,-0.30173240325438144,-0.2014279227765193,-0.49916108956943411,-0.035424380610456122,-1.3680530524942454,1.3372377451140689,-0.500526247427929,-0.39511139354939534,-1.235212149739916,0.58432200414993729,-0.59819423134518046,-0.89753119679717464,-0.8653420105846017,-0.15646915457049831,-0.33886388911069137,0.56852013979895188,0.47691872954352732,-0.30343191954485554,0.56424557707768386,-0.52830832988410648,-0.35808008972466,-0.37909746128286143,-0.11923306283604691,0.23866602190997066,0.056622155705326541,-0.4535233032436623,-0.38959933251155854,-0.94402307257828111,-0.70176061134216916,-2.2947702995165558,-0.76236627190140882,-0.63264027848853488,1.3853072385919298,-0.78111243553726,0.26603670074659985,-1.594316235774581,-2.0044863590761222,-0.41482629774573626,-1.1621564683059003,-0.85603190074388846,-0.79778969984560644,-0.36444680749246733,0.24676246267067634,0.048980901520961122,0.504745762172407,0.614898996927276,-0.39093266119758252,-0.77179056701573223,0.1537727053943645,-0.95179238528122589,0.088609563603048044,-0.63738042250900739,-0.6575272108514455,-1.0296044599158987,-1.4605196187094265,-2.1836131815373165,-2.1456072621269362,-1.5324902442199575,-0.12149240138345549,1.3772322508160981,1.6424754492270568,1.9376736844941822,0.45728513713120983,-0.89415281359171284,-2.59797811526731,-2.4873238430907589,-1.7246520251647728,0.211553773494627,-1.3798150286293733,-0.78902724484219622,0.53878721937748986,0.71477140572465392,0.84253964204477383,-0.1426966400550197,-0.8192932165681901,0.79010634657678591,-0.087851197523621485,0.52576789226178422,0.54244676031144,-0.51006436848788439,-2.9949606421385315,-2.0935480594093,-1.3925803758316306,-1.9115557749985508,-2.576313028206207,-2.2273577896563586,2.3339234899031234,0.54771199309689567,0.10488175797757274,0.39409144033593596,-0.40962998786824645,-3.1711986449210046,-0.369993320406432,-0.33513957496067182,-1.6728471295518059,-1.4954536613261322,-0.39839914555817246,-1.323180909205359,-0.11687104566142036,0.30756449637753736,-0.05237440348247735,-0.16221918519649975,0.59876753176400765,-0.48139549114825558,-0.51712565177990122,0.35507475074374245,-1.220903977967589,-2.7734867399936993,-1.997576895060547,-2.9160816349310767,-2.6387491552562596,-2.8718489777572249,-1.0097551629591079,0.6228540788922623,-1.7449426984685919,-0.58931001358640478,-1.4784220227215359,-0.4346533073350442,-1.9371915222022313,-0.35840634565307078,-1.9586686569402223,-2.2982705883138981,-2.28871266615844,-1.0822538860729034,-0.16304222566315529,0.36254459926604438,-0.65635939004955879,0.96876198300855931,-0.50764850499732261,0.55120662601873449,-0.70571063599386663,-0.20389445860170913,-0.44147779901126211,-1.6086760714969235,-2.7488981856189065,-3.6670649628758474,-3.0967058197200181,-1.7120988128765509,-0.9711279789124504,1.0905356658602079,1.2894546094745474,-0.53954869328506427,1.0116789356033644,-0.71588721642119235,-0.489341042445346,-2.4531611594875211,-0.75313474604287,-3.4626642577002036,-2.5414590622068083,-1.9123941862814071,-1.3195056132929557,0.26799308436495795,0.54082057318795718,0.22998886192434309,-0.77482514182208628,-0.47102899527241959,-0.52211616460750687,-0.72779870425736515,-0.12075311287682312,-0.40880852432944104,-1.2982628163405352,-3.0510420426734455,-3.3930607405180173,-2.005080618348456,0.10010125048703142,0.69061500752416038,2.0811011557438319,0.46990718386181851,1.2166856705611391,3.4618490699211244,-1.4905475980702574,-2.1560879037244667,-2.1616261599000719,-2.810983395760053,-1.5542740742200378,-0.32696774867295597,-0.59055772043783084,-1.4325771273461894,0.16155107528489504,0.079893075010726469,0.9582329793898855,-0.68974299706587183,0.36621299791585726,0.7344795553640272,-0.069927979179698466,-0.458155842972378,-0.07550360902999026,-0.83530372631500316,-3.0662121841862682,-2.0402450125354363,-1.6461618915683081,1.7596692056424725,2.6048693747781986,0.49864903535798277,0.64767641226908279,1.5757512536709819,2.7931677992778492,1.3310651235822122,-0.631082810235644,-1.6423040612978976,-3.3762861174684229,-0.9532448936068485,-0.11591971496066222,-0.77930164036922711,-1.0596324085378053,0.10408324698278706,-0.49622706722593718,0.15662598517239454,0.52993956186186675,-0.748331523433947,0.17763966540565387,-0.65175095724115517,-0.048283492734024214,0.948744910277531,-1.0278180623945648,-2.0725374588552938,-2.2012793556935528,0.23313217671410325,2.3703592000390845,0.95580469574320892,1.449731217620287,1.1541314799894207,1.3552097758809902,2.5795138726122291,1.7243638857438297,-0.45097144885577067,-1.9446833745124228,-3.1685721527826423,-0.20940978937775623,-0.71413344578614579,-0.864106110205042,0.55683946296265407,-0.71850736942621884,-1.059358312559447,0.064220163942624225,-0.443198910317017,-0.068386378330354436,-0.36480890525496429,0.52536632372454073,1.1762330347820222,-0.54362625317465019,-1.4623605065968415,-0.64530707243240726,-2.2534196422007717,-3.5887031163917649,0.24161734665357906,1.8260137401737955,1.6965503631831764,1.0964556358725848,3.4146178865226839,2.8169457394633608,3.4932281910633933,-1.2193005960472936,-2.8848981401359346,-2.8669094556043508,-1.4275097308405191,-0.30153424397603334,-0.87096063018382885,0.0057145245195941857,-1.1817434425432873,0.69057677146262453,0.78031211681604506,0.28749368563132727,-0.1096533349739483,0.87107422192936923,0.351424265701888,1.3374012908589095,0.015026170369761876,-1.2151617728835942,-2.2377158413642979,-2.5030794083986985,-4.54562671210433,-2.1753432613379196,-0.65551185587979677,1.3792624772900282,0.015813015079127444,-1.214031102138782,-0.96417926875601967,3.1468310197697384,-1.5037098713961763,-5.1275019315712109,-2.6778907181797424,-1.123211065935747,0.19924560723166096,-0.10782550994968007,-0.57093234669968529,-0.2248836857922252,0.16157596440108726,-0.58334564737310424,0.92693515918744218,0.18264539501752952,-0.70648447829513517,0.18915776617902474,0.60118621031537089,0.81915682410802648,-1.7226337099782403,-1.8877364406056798,-2.9180746301537694,-1.9451330540625,-1.40489269427459,-2.4103973788795945,-1.0457579772410743,-2.0518166905422115,-2.0609817517949489,-0.56906921993923765,1.743131673576954,-1.0945902605569298,-4.174068137442851,-1.6413775208690395,-1.3586519189040258,-0.97396337142696621,0.17062775808227185,-0.4019957361528731,-0.35061088646625105,-0.70150641592305218,-0.38452597094391472,-0.77327470470838011,0.43801298573209113,0.89585895813478889,0.29859298444729859,-0.347965229319181,-0.054088184458231922,-1.5304690608741665,-1.366199984298424,-1.1067898846726756,-1.47756110646531,-2.1321216769028619,-1.8941232923799893,-1.0876914272902853,-1.2306279976623571,-0.47498133125940495,3.0088677413325371,0.15983636876898513,-3.9607844101698086,-4.0984186470571382,-1.9870510675433877,-1.9039935977133506,-1.1385512312495627,-0.052746117763565428,-1.3911164161534242,-0.28332437940888511,-0.48952969868237217,0.42578161124192276,0.95727089511103514,0.4748662362165,-0.99849650041306814,0.56192495634929063,-0.47538766945376754,-0.075759353167106872,-0.89063162362955728,-2.2956631226544988,-1.4119227205429026,-2.3969417000432478,-3.0521316584423288,-2.96531247197547,-2.4072160151263642,-2.9434084766821615,0.17181019327917574,2.0276722332677481,-2.9105632784969324,-4.7987359839515147,-2.781837770200585,-1.345784509297739,-2.18428800623747,-0.66893989464685177,-1.4219568864127457,-0.54813664990927791,-0.76261688905332559,0.86806861460413076,-0.24665061349668155,-0.43599413633735212,0.35110795231914682,0.7504252660048506,0.76541943057530615,-0.76313041600817144,0.5044898866463372,-0.026587047899563961,-1.8937101458553223,-1.4682324199176269,-2.6688483325512866,-2.4890113494109132,-3.3738537108399913,-3.4119664628847555,-1.28046900101686,1.8594025760672321,0.10581793068055249,-4.47523138095021,-4.0790701735749595,-1.3814631193375402,-0.8280095324633453,-0.88600690191540488,-0.34095996606139678,-0.30243195903197612,-0.63750964471401739,-0.30354029470215682,-1.0541941960620085,0.35305827482471092,0.32961088007780204,-0.91795585070730512,-0.21117793562302833,0.069033938699939915,0.43002598044024476,-0.10927939856302328,-0.090256339302680455,-0.35242994449235027,-0.82540430114687624,-1.1974395645284379,-2.2190151706479369,-3.951668292286342,-2.422669685927914,1.7805037509377062,2.8934823054035257,-0.2530250520091471,-3.9913314766769221,-4.6255092186633888,-2.4332297156301284,-0.38736034912605083,0.39194329121502053,-0.63427788124458,-0.75845994283006146,-1.6477566486056037,0.1338258296631932,-0.30474137955819997,-0.32822008078578507,0.56563991194853558,0.0972138926606729,-0.96270575942167769,-0.34784485408919563,0.063482905072115459,-0.095714714954355656,0.45785045216834142,0.11870918446729051,-0.92082980829807726,-1.7972942665496692,-2.946346554000423,-2.5762749099239897,-2.606062814779984,0.56784411625854925,1.129947669739265,-2.09795600745425,-1.6263272099028736,-1.8964693407955724,0.49175024209602269,0.16818514886834321,0.800032843906248,0.31548167600401944,-1.2424795600227456,-0.550219071156215,-0.85128544061340139,-0.30491384999589127,0.36119653181416939,0.6039017940075273,-0.26809876460386445,0.38379706101196215,-0.24986517262379415,0.70873516751420318,0.30748848626181169,1.8872452127451416,0.85078421239817115,1.7211554940357521,-1.0328233986908926,-1.7206152810813216,-3.2037326229365859,-4.7013235278185244,-1.973581614234057,-0.6941197207794747,-1.6768676677920231,-1.9196143121387583,-0.86983654035616231,-0.055936164472254982,1.0506287289198903,0.59903786239408841,-0.15229020566704918,0.38570553152325282,0.021850537652981682,-0.20927783453352478,-0.904292169187648,-0.36636641144621257,0.18962309193516391,-0.90202099454378259,-0.06663474156899836,0.063993587119016315,-0.76851699303898957,-0.87026335081957407,-0.24120914371962998,-0.61752948858695889,0.94878375108878088,-1.0165005924288979,-1.0415802150439864,-2.9396924147583334,-3.5018352530823988,-3.7845988894845877,-2.1446296027185112,-0.60694191499583294,-1.5447755561131649,-0.055368926915093895,0.38227123555290826,-0.025962920032971057,0.49255422524676873,0.75127067530933167,-1.3566811201433775,0.36064230887488724,-0.17924538117995048,-0.8582646594284955,0.18570543719918795,-0.993257720020254,-0.21312805880472441,-0.093227740293625738,-0.75900182746155076,-1.1390773671458823,0.461744666985578,-1.4518797788013835,-2.037173431941393,-1.5539356001984308,-2.628548174720752,-0.67919990704765654,-1.7404370855645732,-3.1198557244090925,-2.6708415238459984,-1.9984425092825549,-1.3521094944833516,-1.2251180630543967,0.27123192261989787,0.89158956804926348,-0.89898195269493986,-0.12959194503267452,-0.98460056453965816,0.1728881952796506,0.7187571034399769,-0.57444343454847246,0.88567983724291688,-0.22942261467427966,0.52330801706915153,0.35169648721427493,0.85498527960318271,0.59233327798556512,-0.812210479715253,-0.82104238397094143,-0.48849672920394521,-1.4120571061088734,-0.82256347653312567,-2.6096524019559761,-0.45413980517007269,-0.64730772550235194,-2.0606465673100711,-0.56527835656717262,0.10974026567475159,-1.549142497764157,-2.1408158506341857,-1.3390426575389662,0.83120155630532266,-0.11640063278872767,-0.758457758870469,-0.48506692245056049,0.5402748205690231,-0.94842661688375085,-0.95247156072808381,0.11692432084849842,0.64325207547080121,-0.69503069282277985,0.36498317558550419,0.29945282232922166,0.16097042675793452,0.72211422415970683,-0.96531101660496876,-0.66635306847872955,-0.86517359239449321,0.145787775442676,-1.1105869481629562,0.1472848851474089,0.37918719359277209,-0.74673314564647653,0.81220992786299862,-0.55468684029831894,-0.50005989080893587,-0.051779162391002907,-0.010832875087860674,0.81033188031793291,0.21989996939582571,0.34102893626394115,0.016835622822884335,-0.33418184037473742,-0.16656632072980887,0.2892962881682335,-0.4842961168025986,0.37134613329300814,-0.38352359895758503,-0.3545506723944799,0.70218641297062234,0.74591135597353131,0.4264540740158847,0.061785954031136327,-0.54483310649490235,-0.45796462363811813,0.50571810383207427,-0.313670847180476,0.076446610145166807,-0.46079776190099753,0.85989696549676187,-0.96337061615508168,-0.26603799679686579,-1.0989596738758782,-0.27146868619551257,0.7541253769097489,0.15448965297106682,0.685097238519941,0.3433061770651859,0.89488976420267974,-0.36447206702667934,-0.99101532068269127,-0.1790704695410334,-0.37912355613853943,-0.47944190980840562,-0.11278975899926846,0.41920302315577995,-0.26223936549492155,-0.52294425178456316,0.87039896374121262,0.19430663678529991,-0.23039228433295722,-0.8395502985639266,0.9061464564437729,0.63551502192184106,0.09186416449577739,0.640852641147027,-0.72562246198096425,0.87515275919584212,-0.30936964382853804,-0.18981685544821292,0.59049463066761132,-0.74722527142019257,-0.83554757192523565,-0.91100815400062507,-0.576492713567099,0.62638867629058126,-0.77153004136473413,0.45045760993401407,0.22546467800879144,-0.79047825084555812,-0.047967846062019426,-0.78276538093703119,-0.23800131922494683,-0.971192344078418,0.6927867707297144,-0.0750220627873307,-0.19363943636121206,-0.42300122763169989,0.65705264064346092,0.23863820603053942,-0.24786972033226384,-0.80633336110335463,0.51693673968172482,0.92938932307501765,-0.31021397249317451,-0.94311543551418719,0.23709218075363525,0.021781303464333268,-0.91509923334936571,0.95607975495796649,-0.19332785587447132,0.70057980329756608,-0.52210129402675731,0.0442945757155746,